digraph Tree {
node [shape=box, style="filled, rounded", color="black", fontname="helvetica"] ;
edge [fontname="helvetica"] ;
0 [label="X[13] <= -0.45\ngini = 0.5\nsamples = 4755\nvalue = [3746, 3739]\nclass = 0", fillcolor="#ffffff"] ;
1 [label="X[34] <= 0.69\ngini = 0.44\nsamples = 2298\nvalue = [1208, 2433]\nclass = 1", fillcolor="#9bcef2"] ;
0 -> 1 [labeldistance=2.5, labelangle=45, headlabel="True"] ;
2 [label="X[0] <= -0.7\ngini = 0.5\nsamples = 1626\nvalue = [1184, 1410]\nclass = 1", fillcolor="#dfeffb"] ;
1 -> 2 ;
3 [label="X[4] <= -0.1\ngini = 0.35\nsamples = 348\nvalue = [435, 127]\nclass = 0", fillcolor="#eda673"] ;
2 -> 3 ;
4 [label="X[10] <= 0.03\ngini = 0.47\nsamples = 205\nvalue = [204, 126]\nclass = 0", fillcolor="#f5cfb3"] ;
3 -> 4 ;
5 [label="X[33] <= -0.43\ngini = 0.48\nsamples = 191\nvalue = [187, 126]\nclass = 0", fillcolor="#f7d6be"] ;
4 -> 5 ;
6 [label="X[45] <= -0.56\ngini = 0.46\nsamples = 84\nvalue = [50, 89]\nclass = 1", fillcolor="#a8d4f4"] ;
5 -> 6 ;
7 [label="X[3] <= -1.19\ngini = 0.35\nsamples = 5\nvalue = [7, 2]\nclass = 0", fillcolor="#eca572"] ;
6 -> 7 ;
8 [label="gini = 0.0\nsamples = 1\nvalue = [0, 2]\nclass = 1", fillcolor="#399de5"] ;
7 -> 8 ;
9 [label="gini = 0.0\nsamples = 4\nvalue = [7, 0]\nclass = 0", fillcolor="#e58139"] ;
7 -> 9 ;
10 [label="X[29] <= -0.95\ngini = 0.44\nsamples = 79\nvalue = [43, 87]\nclass = 1", fillcolor="#9bcdf2"] ;
6 -> 10 ;
11 [label="X[5] <= 0.66\ngini = 0.28\nsamples = 11\nvalue = [15, 3]\nclass = 0", fillcolor="#ea9a61"] ;
10 -> 11 ;
12 [label="gini = 0.0\nsamples = 8\nvalue = [12, 0]\nclass = 0", fillcolor="#e58139"] ;
11 -> 12 ;
13 [label="X[39] <= 0.34\ngini = 0.5\nsamples = 3\nvalue = [3, 3]\nclass = 0", fillcolor="#ffffff"] ;
11 -> 13 ;
14 [label="gini = 0.0\nsamples = 2\nvalue = [3, 0]\nclass = 0", fillcolor="#e58139"] ;
13 -> 14 ;
15 [label="gini = 0.0\nsamples = 1\nvalue = [0, 3]\nclass = 1", fillcolor="#399de5"] ;
13 -> 15 ;
16 [label="X[21] <= -1.35\ngini = 0.38\nsamples = 68\nvalue = [28, 84]\nclass = 1", fillcolor="#7bbeee"] ;
10 -> 16 ;
17 [label="gini = 0.0\nsamples = 3\nvalue = [8, 0]\nclass = 0", fillcolor="#e58139"] ;
16 -> 17 ;
18 [label="X[39] <= 0.34\ngini = 0.31\nsamples = 65\nvalue = [20, 84]\nclass = 1", fillcolor="#68b4eb"] ;
16 -> 18 ;
19 [label="X[3] <= -0.01\ngini = 0.24\nsamples = 53\nvalue = [11, 69]\nclass = 1", fillcolor="#59ade9"] ;
18 -> 19 ;
20 [label="X[3] <= -0.95\ngini = 0.17\nsamples = 51\nvalue = [7, 69]\nclass = 1", fillcolor="#4da7e8"] ;
19 -> 20 ;
21 [label="gini = 0.0\nsamples = 24\nvalue = [0, 35]\nclass = 1", fillcolor="#399de5"] ;
20 -> 21 ;
22 [label="X[26] <= -0.66\ngini = 0.28\nsamples = 27\nvalue = [7, 34]\nclass = 1", fillcolor="#62b1ea"] ;
20 -> 22 ;
23 [label="X[27] <= -0.32\ngini = 0.06\nsamples = 21\nvalue = [1, 31]\nclass = 1", fillcolor="#3fa0e6"] ;
22 -> 23 ;
24 [label="gini = 0.0\nsamples = 19\nvalue = [0, 29]\nclass = 1", fillcolor="#399de5"] ;
23 -> 24 ;
25 [label="X[3] <= -0.91\ngini = 0.44\nsamples = 2\nvalue = [1, 2]\nclass = 1", fillcolor="#9ccef2"] ;
23 -> 25 ;
26 [label="gini = 0.0\nsamples = 1\nvalue = [0, 2]\nclass = 1", fillcolor="#399de5"] ;
25 -> 26 ;
27 [label="gini = 0.0\nsamples = 1\nvalue = [1, 0]\nclass = 0", fillcolor="#e58139"] ;
25 -> 27 ;
28 [label="X[47] <= -0.35\ngini = 0.44\nsamples = 6\nvalue = [6, 3]\nclass = 0", fillcolor="#f2c09c"] ;
22 -> 28 ;
29 [label="gini = 0.0\nsamples = 1\nvalue = [0, 3]\nclass = 1", fillcolor="#399de5"] ;
28 -> 29 ;
30 [label="gini = 0.0\nsamples = 5\nvalue = [6, 0]\nclass = 0", fillcolor="#e58139"] ;
28 -> 30 ;
31 [label="gini = 0.0\nsamples = 2\nvalue = [4, 0]\nclass = 0", fillcolor="#e58139"] ;
19 -> 31 ;
32 [label="X[18] <= 0.14\ngini = 0.47\nsamples = 12\nvalue = [9, 15]\nclass = 1", fillcolor="#b0d8f5"] ;
18 -> 32 ;
33 [label="X[30] <= 0.58\ngini = 0.5\nsamples = 6\nvalue = [6, 6]\nclass = 0", fillcolor="#ffffff"] ;
32 -> 33 ;
34 [label="gini = 0.0\nsamples = 4\nvalue = [0, 6]\nclass = 1", fillcolor="#399de5"] ;
33 -> 34 ;
35 [label="gini = 0.0\nsamples = 2\nvalue = [6, 0]\nclass = 0", fillcolor="#e58139"] ;
33 -> 35 ;
36 [label="X[47] <= -0.91\ngini = 0.38\nsamples = 6\nvalue = [3, 9]\nclass = 1", fillcolor="#7bbeee"] ;
32 -> 36 ;
37 [label="gini = 0.0\nsamples = 4\nvalue = [0, 9]\nclass = 1", fillcolor="#399de5"] ;
36 -> 37 ;
38 [label="gini = 0.0\nsamples = 2\nvalue = [3, 0]\nclass = 0", fillcolor="#e58139"] ;
36 -> 38 ;
39 [label="X[47] <= -0.91\ngini = 0.33\nsamples = 107\nvalue = [137, 37]\nclass = 0", fillcolor="#eca36e"] ;
5 -> 39 ;
40 [label="X[18] <= 0.14\ngini = 0.22\nsamples = 22\nvalue = [5, 35]\nclass = 1", fillcolor="#55abe9"] ;
39 -> 40 ;
41 [label="X[26] <= 0.53\ngini = 0.26\nsamples = 17\nvalue = [5, 28]\nclass = 1", fillcolor="#5caeea"] ;
40 -> 41 ;
42 [label="X[26] <= -0.44\ngini = 0.13\nsamples = 14\nvalue = [2, 27]\nclass = 1", fillcolor="#48a4e7"] ;
41 -> 42 ;
43 [label="gini = 0.0\nsamples = 11\nvalue = [0, 22]\nclass = 1", fillcolor="#399de5"] ;
42 -> 43 ;
44 [label="X[4] <= -0.42\ngini = 0.41\nsamples = 3\nvalue = [2, 5]\nclass = 1", fillcolor="#88c4ef"] ;
42 -> 44 ;
45 [label="gini = 0.0\nsamples = 2\nvalue = [0, 5]\nclass = 1", fillcolor="#399de5"] ;
44 -> 45 ;
46 [label="gini = 0.0\nsamples = 1\nvalue = [2, 0]\nclass = 0", fillcolor="#e58139"] ;
44 -> 46 ;
47 [label="X[21] <= -0.29\ngini = 0.38\nsamples = 3\nvalue = [3, 1]\nclass = 0", fillcolor="#eeab7b"] ;
41 -> 47 ;
48 [label="gini = 0.0\nsamples = 2\nvalue = [3, 0]\nclass = 0", fillcolor="#e58139"] ;
47 -> 48 ;
49 [label="gini = 0.0\nsamples = 1\nvalue = [0, 1]\nclass = 1", fillcolor="#399de5"] ;
47 -> 49 ;
50 [label="gini = 0.0\nsamples = 5\nvalue = [0, 7]\nclass = 1", fillcolor="#399de5"] ;
40 -> 50 ;
51 [label="X[18] <= 0.14\ngini = 0.03\nsamples = 85\nvalue = [132, 2]\nclass = 0", fillcolor="#e5833c"] ;
39 -> 51 ;
52 [label="X[15] <= -0.05\ngini = 0.04\nsamples = 57\nvalue = [90, 2]\nclass = 0", fillcolor="#e6843d"] ;
51 -> 52 ;
53 [label="X[46] <= -0.89\ngini = 0.03\nsamples = 38\nvalue = [65, 1]\nclass = 0", fillcolor="#e5833c"] ;
52 -> 53 ;
54 [label="X[20] <= -0.66\ngini = 0.14\nsamples = 8\nvalue = [12, 1]\nclass = 0", fillcolor="#e78c49"] ;
53 -> 54 ;
55 [label="X[31] <= 1.32\ngini = 0.44\nsamples = 2\nvalue = [2, 1]\nclass = 0", fillcolor="#f2c09c"] ;
54 -> 55 ;
56 [label="gini = 0.0\nsamples = 1\nvalue = [0, 1]\nclass = 1", fillcolor="#399de5"] ;
55 -> 56 ;
57 [label="gini = 0.0\nsamples = 1\nvalue = [2, 0]\nclass = 0", fillcolor="#e58139"] ;
55 -> 57 ;
58 [label="gini = 0.0\nsamples = 6\nvalue = [10, 0]\nclass = 0", fillcolor="#e58139"] ;
54 -> 58 ;
59 [label="gini = 0.0\nsamples = 30\nvalue = [53, 0]\nclass = 0", fillcolor="#e58139"] ;
53 -> 59 ;
60 [label="X[33] <= -0.28\ngini = 0.07\nsamples = 19\nvalue = [25, 1]\nclass = 0", fillcolor="#e68641"] ;
52 -> 60 ;
61 [label="gini = 0.0\nsamples = 10\nvalue = [16, 0]\nclass = 0", fillcolor="#e58139"] ;
60 -> 61 ;
62 [label="X[26] <= 0.02\ngini = 0.18\nsamples = 9\nvalue = [9, 1]\nclass = 0", fillcolor="#e88f4f"] ;
60 -> 62 ;
63 [label="gini = 0.0\nsamples = 8\nvalue = [9, 0]\nclass = 0", fillcolor="#e58139"] ;
62 -> 63 ;
64 [label="gini = 0.0\nsamples = 1\nvalue = [0, 1]\nclass = 1", fillcolor="#399de5"] ;
62 -> 64 ;
65 [label="gini = 0.0\nsamples = 28\nvalue = [42, 0]\nclass = 0", fillcolor="#e58139"] ;
51 -> 65 ;
66 [label="gini = 0.0\nsamples = 14\nvalue = [17, 0]\nclass = 0", fillcolor="#e58139"] ;
4 -> 66 ;
67 [label="X[45] <= -2.48\ngini = 0.01\nsamples = 143\nvalue = [231, 1]\nclass = 0", fillcolor="#e5823a"] ;
3 -> 67 ;
68 [label="X[4] <= 0.22\ngini = 0.12\nsamples = 11\nvalue = [15, 1]\nclass = 0", fillcolor="#e78946"] ;
67 -> 68 ;
69 [label="X[47] <= -0.35\ngini = 0.44\nsamples = 2\nvalue = [2, 1]\nclass = 0", fillcolor="#f2c09c"] ;
68 -> 69 ;
70 [label="gini = 0.0\nsamples = 1\nvalue = [0, 1]\nclass = 1", fillcolor="#399de5"] ;
69 -> 70 ;
71 [label="gini = 0.0\nsamples = 1\nvalue = [2, 0]\nclass = 0", fillcolor="#e58139"] ;
69 -> 71 ;
72 [label="gini = 0.0\nsamples = 9\nvalue = [13, 0]\nclass = 0", fillcolor="#e58139"] ;
68 -> 72 ;
73 [label="gini = 0.0\nsamples = 132\nvalue = [216, 0]\nclass = 0", fillcolor="#e58139"] ;
67 -> 73 ;
74 [label="X[28] <= 0.89\ngini = 0.47\nsamples = 1278\nvalue = [749, 1283]\nclass = 1", fillcolor="#add6f4"] ;
2 -> 74 ;
75 [label="X[29] <= -0.95\ngini = 0.48\nsamples = 1088\nvalue = [680, 1060]\nclass = 1", fillcolor="#b8dcf6"] ;
74 -> 75 ;
76 [label="X[47] <= -0.91\ngini = 0.31\nsamples = 167\nvalue = [221, 52]\nclass = 0", fillcolor="#eb9f68"] ;
75 -> 76 ;
77 [label="X[15] <= -0.05\ngini = 0.13\nsamples = 28\nvalue = [3, 39]\nclass = 1", fillcolor="#48a5e7"] ;
76 -> 77 ;
78 [label="X[45] <= -0.56\ngini = 0.38\nsamples = 2\nvalue = [3, 1]\nclass = 0", fillcolor="#eeab7b"] ;
77 -> 78 ;
79 [label="gini = 0.0\nsamples = 1\nvalue = [0, 1]\nclass = 1", fillcolor="#399de5"] ;
78 -> 79 ;
80 [label="gini = 0.0\nsamples = 1\nvalue = [3, 0]\nclass = 0", fillcolor="#e58139"] ;
78 -> 80 ;
81 [label="gini = 0.0\nsamples = 26\nvalue = [0, 38]\nclass = 1", fillcolor="#399de5"] ;
77 -> 81 ;
82 [label="X[14] <= -4.64\ngini = 0.11\nsamples = 139\nvalue = [218, 13]\nclass = 0", fillcolor="#e78945"] ;
76 -> 82 ;
83 [label="X[27] <= -0.92\ngini = 0.47\nsamples = 7\nvalue = [10, 6]\nclass = 0", fillcolor="#f5cdb0"] ;
82 -> 83 ;
84 [label="gini = 0.0\nsamples = 3\nvalue = [0, 6]\nclass = 1", fillcolor="#399de5"] ;
83 -> 84 ;
85 [label="gini = 0.0\nsamples = 4\nvalue = [10, 0]\nclass = 0", fillcolor="#e58139"] ;
83 -> 85 ;
86 [label="X[31] <= 1.32\ngini = 0.06\nsamples = 132\nvalue = [208, 7]\nclass = 0", fillcolor="#e68540"] ;
82 -> 86 ;
87 [label="X[20] <= 0.33\ngini = 0.07\nsamples = 127\nvalue = [200, 7]\nclass = 0", fillcolor="#e68540"] ;
86 -> 87 ;
88 [label="X[0] <= 0.78\ngini = 0.09\nsamples = 91\nvalue = [137, 7]\nclass = 0", fillcolor="#e68743"] ;
87 -> 88 ;
89 [label="X[21] <= -0.53\ngini = 0.06\nsamples = 86\nvalue = [132, 4]\nclass = 0", fillcolor="#e6853f"] ;
88 -> 89 ;
90 [label="gini = 0.0\nsamples = 51\nvalue = [78, 0]\nclass = 0", fillcolor="#e58139"] ;
89 -> 90 ;
91 [label="X[44] <= 0.17\ngini = 0.13\nsamples = 35\nvalue = [54, 4]\nclass = 0", fillcolor="#e78a48"] ;
89 -> 91 ;
92 [label="gini = 0.0\nsamples = 6\nvalue = [14, 0]\nclass = 0", fillcolor="#e58139"] ;
91 -> 92 ;
93 [label="X[20] <= 0.21\ngini = 0.17\nsamples = 29\nvalue = [40, 4]\nclass = 0", fillcolor="#e88e4d"] ;
91 -> 93 ;
94 [label="X[33] <= 0.08\ngini = 0.05\nsamples = 25\nvalue = [37, 1]\nclass = 0", fillcolor="#e6843e"] ;
93 -> 94 ;
95 [label="gini = 0.0\nsamples = 22\nvalue = [35, 0]\nclass = 0", fillcolor="#e58139"] ;
94 -> 95 ;
96 [label="X[38] <= 1.11\ngini = 0.44\nsamples = 3\nvalue = [2, 1]\nclass = 0", fillcolor="#f2c09c"] ;
94 -> 96 ;
97 [label="gini = 0.0\nsamples = 1\nvalue = [0, 1]\nclass = 1", fillcolor="#399de5"] ;
96 -> 97 ;
98 [label="gini = 0.0\nsamples = 2\nvalue = [2, 0]\nclass = 0", fillcolor="#e58139"] ;
96 -> 98 ;
99 [label="X[26] <= -0.67\ngini = 0.5\nsamples = 4\nvalue = [3, 3]\nclass = 0", fillcolor="#ffffff"] ;
93 -> 99 ;
100 [label="gini = 0.0\nsamples = 1\nvalue = [0, 2]\nclass = 1", fillcolor="#399de5"] ;
99 -> 100 ;
101 [label="X[1] <= -0.11\ngini = 0.38\nsamples = 3\nvalue = [3, 1]\nclass = 0", fillcolor="#eeab7b"] ;
99 -> 101 ;
102 [label="gini = 0.0\nsamples = 1\nvalue = [0, 1]\nclass = 1", fillcolor="#399de5"] ;
101 -> 102 ;
103 [label="gini = 0.0\nsamples = 2\nvalue = [3, 0]\nclass = 0", fillcolor="#e58139"] ;
101 -> 103 ;
104 [label="X[18] <= 0.14\ngini = 0.47\nsamples = 5\nvalue = [5, 3]\nclass = 0", fillcolor="#f5cdb0"] ;
88 -> 104 ;
105 [label="X[7] <= 4.28\ngini = 0.38\nsamples = 3\nvalue = [3, 1]\nclass = 0", fillcolor="#eeab7b"] ;
104 -> 105 ;
106 [label="X[3] <= 0.31\ngini = 0.5\nsamples = 2\nvalue = [1, 1]\nclass = 0", fillcolor="#ffffff"] ;
105 -> 106 ;
107 [label="gini = 0.0\nsamples = 1\nvalue = [0, 1]\nclass = 1", fillcolor="#399de5"] ;
106 -> 107 ;
108 [label="gini = 0.0\nsamples = 1\nvalue = [1, 0]\nclass = 0", fillcolor="#e58139"] ;
106 -> 108 ;
109 [label="gini = 0.0\nsamples = 1\nvalue = [2, 0]\nclass = 0", fillcolor="#e58139"] ;
105 -> 109 ;
110 [label="X[4] <= -0.1\ngini = 0.5\nsamples = 2\nvalue = [2, 2]\nclass = 0", fillcolor="#ffffff"] ;
104 -> 110 ;
111 [label="gini = 0.0\nsamples = 1\nvalue = [2, 0]\nclass = 0", fillcolor="#e58139"] ;
110 -> 111 ;
112 [label="gini = 0.0\nsamples = 1\nvalue = [0, 2]\nclass = 1", fillcolor="#399de5"] ;
110 -> 112 ;
113 [label="gini = 0.0\nsamples = 36\nvalue = [63, 0]\nclass = 0", fillcolor="#e58139"] ;
87 -> 113 ;
114 [label="gini = 0.0\nsamples = 5\nvalue = [8, 0]\nclass = 0", fillcolor="#e58139"] ;
86 -> 114 ;
115 [label="X[26] <= -0.7\ngini = 0.43\nsamples = 921\nvalue = [459, 1008]\nclass = 1", fillcolor="#93caf1"] ;
75 -> 115 ;
116 [label="X[20] <= 0.21\ngini = 0.07\nsamples = 552\nvalue = [35, 865]\nclass = 1", fillcolor="#41a1e6"] ;
115 -> 116 ;
117 [label="X[3] <= 1.11\ngini = 0.1\nsamples = 345\nvalue = [29, 525]\nclass = 1", fillcolor="#44a2e6"] ;
116 -> 117 ;
118 [label="X[27] <= -1.01\ngini = 0.08\nsamples = 340\nvalue = [24, 522]\nclass = 1", fillcolor="#42a2e6"] ;
117 -> 118 ;
119 [label="gini = 0.0\nsamples = 279\nvalue = [0, 445]\nclass = 1", fillcolor="#399de5"] ;
118 -> 119 ;
120 [label="X[21] <= -1.2\ngini = 0.36\nsamples = 61\nvalue = [24, 77]\nclass = 1", fillcolor="#77bced"] ;
118 -> 120 ;
121 [label="gini = 0.0\nsamples = 3\nvalue = [7, 0]\nclass = 0", fillcolor="#e58139"] ;
120 -> 121 ;
122 [label="X[47] <= 0.21\ngini = 0.3\nsamples = 58\nvalue = [17, 77]\nclass = 1", fillcolor="#65b3eb"] ;
120 -> 122 ;
123 [label="gini = 0.0\nsamples = 16\nvalue = [0, 29]\nclass = 1", fillcolor="#399de5"] ;
122 -> 123 ;
124 [label="X[2] <= -0.97\ngini = 0.39\nsamples = 42\nvalue = [17, 48]\nclass = 1", fillcolor="#7fc0ee"] ;
122 -> 124 ;
125 [label="gini = 0.0\nsamples = 2\nvalue = [2, 0]\nclass = 0", fillcolor="#e58139"] ;
124 -> 125 ;
126 [label="X[1] <= -0.11\ngini = 0.36\nsamples = 40\nvalue = [15, 48]\nclass = 1", fillcolor="#77bced"] ;
124 -> 126 ;
127 [label="X[30] <= 0.58\ngini = 0.12\nsamples = 20\nvalue = [2, 28]\nclass = 1", fillcolor="#47a4e7"] ;
126 -> 127 ;
128 [label="X[46] <= 0.43\ngini = 0.07\nsamples = 18\nvalue = [1, 27]\nclass = 1", fillcolor="#40a1e6"] ;
127 -> 128 ;
129 [label="X[15] <= -0.05\ngini = 0.12\nsamples = 11\nvalue = [1, 14]\nclass = 1", fillcolor="#47a4e7"] ;
128 -> 129 ;
130 [label="X[27] <= -0.93\ngini = 0.14\nsamples = 10\nvalue = [1, 12]\nclass = 1", fillcolor="#49a5e7"] ;
129 -> 130 ;
131 [label="gini = 0.0\nsamples = 1\nvalue = [1, 0]\nclass = 0", fillcolor="#e58139"] ;
130 -> 131 ;
132 [label="gini = 0.0\nsamples = 9\nvalue = [0, 12]\nclass = 1", fillcolor="#399de5"] ;
130 -> 132 ;
133 [label="gini = 0.0\nsamples = 1\nvalue = [0, 2]\nclass = 1", fillcolor="#399de5"] ;
129 -> 133 ;
134 [label="gini = 0.0\nsamples = 7\nvalue = [0, 13]\nclass = 1", fillcolor="#399de5"] ;
128 -> 134 ;
135 [label="X[27] <= 0.37\ngini = 0.5\nsamples = 2\nvalue = [1, 1]\nclass = 0", fillcolor="#ffffff"] ;
127 -> 135 ;
136 [label="gini = 0.0\nsamples = 1\nvalue = [0, 1]\nclass = 1", fillcolor="#399de5"] ;
135 -> 136 ;
137 [label="gini = 0.0\nsamples = 1\nvalue = [1, 0]\nclass = 0", fillcolor="#e58139"] ;
135 -> 137 ;
138 [label="X[0] <= 0.04\ngini = 0.48\nsamples = 20\nvalue = [13, 20]\nclass = 1", fillcolor="#baddf6"] ;
126 -> 138 ;
139 [label="X[20] <= -0.66\ngini = 0.4\nsamples = 7\nvalue = [8, 3]\nclass = 0", fillcolor="#efb083"] ;
138 -> 139 ;
140 [label="gini = 0.0\nsamples = 1\nvalue = [0, 1]\nclass = 1", fillcolor="#399de5"] ;
139 -> 140 ;
141 [label="X[43] <= 0.59\ngini = 0.32\nsamples = 6\nvalue = [8, 2]\nclass = 0", fillcolor="#eca06a"] ;
139 -> 141 ;
142 [label="gini = 0.0\nsamples = 1\nvalue = [2, 0]\nclass = 0", fillcolor="#e58139"] ;
141 -> 142 ;
143 [label="X[18] <= 0.14\ngini = 0.38\nsamples = 5\nvalue = [6, 2]\nclass = 0", fillcolor="#eeab7b"] ;
141 -> 143 ;
144 [label="X[20] <= -0.35\ngini = 0.5\nsamples = 3\nvalue = [2, 2]\nclass = 0", fillcolor="#ffffff"] ;
143 -> 144 ;
145 [label="gini = 0.0\nsamples = 1\nvalue = [2, 0]\nclass = 0", fillcolor="#e58139"] ;
144 -> 145 ;
146 [label="gini = 0.0\nsamples = 2\nvalue = [0, 2]\nclass = 1", fillcolor="#399de5"] ;
144 -> 146 ;
147 [label="gini = 0.0\nsamples = 2\nvalue = [4, 0]\nclass = 0", fillcolor="#e58139"] ;
143 -> 147 ;
148 [label="X[46] <= 0.43\ngini = 0.35\nsamples = 13\nvalue = [5, 17]\nclass = 1", fillcolor="#73baed"] ;
138 -> 148 ;
149 [label="X[2] <= 0.64\ngini = 0.44\nsamples = 10\nvalue = [5, 10]\nclass = 1", fillcolor="#9ccef2"] ;
148 -> 149 ;
150 [label="X[2] <= -0.43\ngini = 0.47\nsamples = 6\nvalue = [5, 3]\nclass = 0", fillcolor="#f5cdb0"] ;
149 -> 150 ;
151 [label="gini = 0.0\nsamples = 1\nvalue = [1, 0]\nclass = 0", fillcolor="#e58139"] ;
150 -> 151 ;
152 [label="X[21] <= -0.29\ngini = 0.49\nsamples = 5\nvalue = [4, 3]\nclass = 0", fillcolor="#f8e0ce"] ;
150 -> 152 ;
153 [label="gini = 0.0\nsamples = 2\nvalue = [0, 3]\nclass = 1", fillcolor="#399de5"] ;
152 -> 153 ;
154 [label="gini = 0.0\nsamples = 3\nvalue = [4, 0]\nclass = 0", fillcolor="#e58139"] ;
152 -> 154 ;
155 [label="gini = 0.0\nsamples = 4\nvalue = [0, 7]\nclass = 1", fillcolor="#399de5"] ;
149 -> 155 ;
156 [label="gini = 0.0\nsamples = 3\nvalue = [0, 7]\nclass = 1", fillcolor="#399de5"] ;
148 -> 156 ;
157 [label="X[4] <= 1.51\ngini = 0.47\nsamples = 5\nvalue = [5, 3]\nclass = 0", fillcolor="#f5cdb0"] ;
117 -> 157 ;
158 [label="X[31] <= 1.32\ngini = 0.48\nsamples = 4\nvalue = [2, 3]\nclass = 1", fillcolor="#bddef6"] ;
157 -> 158 ;
159 [label="X[13] <= -0.55\ngini = 0.5\nsamples = 3\nvalue = [2, 2]\nclass = 0", fillcolor="#ffffff"] ;
158 -> 159 ;
160 [label="gini = 0.0\nsamples = 1\nvalue = [2, 0]\nclass = 0", fillcolor="#e58139"] ;
159 -> 160 ;
161 [label="gini = 0.0\nsamples = 2\nvalue = [0, 2]\nclass = 1", fillcolor="#399de5"] ;
159 -> 161 ;
162 [label="gini = 0.0\nsamples = 1\nvalue = [0, 1]\nclass = 1", fillcolor="#399de5"] ;
158 -> 162 ;
163 [label="gini = 0.0\nsamples = 1\nvalue = [3, 0]\nclass = 0", fillcolor="#e58139"] ;
157 -> 163 ;
164 [label="X[4] <= 1.34\ngini = 0.03\nsamples = 207\nvalue = [6, 340]\nclass = 1", fillcolor="#3c9fe5"] ;
116 -> 164 ;
165 [label="X[41] <= 2.74\ngini = 0.03\nsamples = 206\nvalue = [5, 340]\nclass = 1", fillcolor="#3c9ee5"] ;
164 -> 165 ;
166 [label="X[27] <= 0.04\ngini = 0.02\nsamples = 195\nvalue = [3, 323]\nclass = 1", fillcolor="#3b9ee5"] ;
165 -> 166 ;
167 [label="X[0] <= 0.04\ngini = 0.01\nsamples = 191\nvalue = [1, 319]\nclass = 1", fillcolor="#3a9de5"] ;
166 -> 167 ;
168 [label="gini = 0.0\nsamples = 81\nvalue = [0, 148]\nclass = 1", fillcolor="#399de5"] ;
167 -> 168 ;
169 [label="X[11] <= 1.54\ngini = 0.01\nsamples = 110\nvalue = [1, 171]\nclass = 1", fillcolor="#3a9ee5"] ;
167 -> 169 ;
170 [label="gini = 0.0\nsamples = 109\nvalue = [0, 171]\nclass = 1", fillcolor="#399de5"] ;
169 -> 170 ;
171 [label="gini = 0.0\nsamples = 1\nvalue = [1, 0]\nclass = 0", fillcolor="#e58139"] ;
169 -> 171 ;
172 [label="X[4] <= -0.42\ngini = 0.44\nsamples = 4\nvalue = [2, 4]\nclass = 1", fillcolor="#9ccef2"] ;
166 -> 172 ;
173 [label="X[1] <= 5.21\ngini = 0.32\nsamples = 3\nvalue = [1, 4]\nclass = 1", fillcolor="#6ab6ec"] ;
172 -> 173 ;
174 [label="X[0] <= 0.78\ngini = 0.44\nsamples = 2\nvalue = [1, 2]\nclass = 1", fillcolor="#9ccef2"] ;
173 -> 174 ;
175 [label="gini = 0.0\nsamples = 1\nvalue = [1, 0]\nclass = 0", fillcolor="#e58139"] ;
174 -> 175 ;
176 [label="gini = 0.0\nsamples = 1\nvalue = [0, 2]\nclass = 1", fillcolor="#399de5"] ;
174 -> 176 ;
177 [label="gini = 0.0\nsamples = 1\nvalue = [0, 2]\nclass = 1", fillcolor="#399de5"] ;
173 -> 177 ;
178 [label="gini = 0.0\nsamples = 1\nvalue = [1, 0]\nclass = 0", fillcolor="#e58139"] ;
172 -> 178 ;
179 [label="X[44] <= 0.17\ngini = 0.19\nsamples = 11\nvalue = [2, 17]\nclass = 1", fillcolor="#50a9e8"] ;
165 -> 179 ;
180 [label="gini = 0.0\nsamples = 1\nvalue = [2, 0]\nclass = 0", fillcolor="#e58139"] ;
179 -> 180 ;
181 [label="gini = 0.0\nsamples = 10\nvalue = [0, 17]\nclass = 1", fillcolor="#399de5"] ;
179 -> 181 ;
182 [label="gini = 0.0\nsamples = 1\nvalue = [1, 0]\nclass = 0", fillcolor="#e58139"] ;
164 -> 182 ;
183 [label="X[26] <= 0.37\ngini = 0.38\nsamples = 369\nvalue = [424, 143]\nclass = 0", fillcolor="#eeab7c"] ;
115 -> 183 ;
184 [label="X[0] <= 0.78\ngini = 0.15\nsamples = 280\nvalue = [397, 36]\nclass = 0", fillcolor="#e78c4b"] ;
183 -> 184 ;
185 [label="X[39] <= 0.34\ngini = 0.13\nsamples = 265\nvalue = [384, 28]\nclass = 0", fillcolor="#e78a47"] ;
184 -> 185 ;
186 [label="X[18] <= 0.14\ngini = 0.21\nsamples = 148\nvalue = [195, 27]\nclass = 0", fillcolor="#e99254"] ;
185 -> 186 ;
187 [label="X[47] <= -0.91\ngini = 0.27\nsamples = 98\nvalue = [117, 23]\nclass = 0", fillcolor="#ea9a60"] ;
186 -> 187 ;
188 [label="gini = 0.0\nsamples = 8\nvalue = [0, 11]\nclass = 1", fillcolor="#399de5"] ;
187 -> 188 ;
189 [label="X[24] <= 1.06\ngini = 0.17\nsamples = 90\nvalue = [117, 12]\nclass = 0", fillcolor="#e88e4d"] ;
187 -> 189 ;
190 [label="X[1] <= -0.11\ngini = 0.16\nsamples = 88\nvalue = [116, 11]\nclass = 0", fillcolor="#e78d4c"] ;
189 -> 190 ;
191 [label="X[22] <= -0.23\ngini = 0.4\nsamples = 20\nvalue = [21, 8]\nclass = 0", fillcolor="#efb184"] ;
190 -> 191 ;
192 [label="X[43] <= -0.63\ngini = 0.49\nsamples = 15\nvalue = [11, 8]\nclass = 0", fillcolor="#f8ddc9"] ;
191 -> 192 ;
193 [label="gini = 0.0\nsamples = 1\nvalue = [1, 0]\nclass = 0", fillcolor="#e58139"] ;
192 -> 193 ;
194 [label="X[46] <= -0.89\ngini = 0.49\nsamples = 14\nvalue = [10, 8]\nclass = 0", fillcolor="#fae6d7"] ;
192 -> 194 ;
195 [label="gini = 0.0\nsamples = 6\nvalue = [0, 8]\nclass = 1", fillcolor="#399de5"] ;
194 -> 195 ;
196 [label="gini = 0.0\nsamples = 8\nvalue = [10, 0]\nclass = 0", fillcolor="#e58139"] ;
194 -> 196 ;
197 [label="gini = 0.0\nsamples = 5\nvalue = [10, 0]\nclass = 0", fillcolor="#e58139"] ;
191 -> 197 ;
198 [label="X[27] <= 1.56\ngini = 0.06\nsamples = 68\nvalue = [95, 3]\nclass = 0", fillcolor="#e6853f"] ;
190 -> 198 ;
199 [label="X[33] <= -0.43\ngini = 0.04\nsamples = 67\nvalue = [95, 2]\nclass = 0", fillcolor="#e6843d"] ;
198 -> 199 ;
200 [label="X[38] <= 1.11\ngini = 0.15\nsamples = 19\nvalue = [23, 2]\nclass = 0", fillcolor="#e78c4a"] ;
199 -> 200 ;
201 [label="gini = 0.0\nsamples = 10\nvalue = [11, 0]\nclass = 0", fillcolor="#e58139"] ;
200 -> 201 ;
202 [label="X[46] <= 0.43\ngini = 0.24\nsamples = 9\nvalue = [12, 2]\nclass = 0", fillcolor="#e9965a"] ;
200 -> 202 ;
203 [label="X[26] <= -0.65\ngini = 0.38\nsamples = 6\nvalue = [6, 2]\nclass = 0", fillcolor="#eeab7b"] ;
202 -> 203 ;
204 [label="gini = 0.0\nsamples = 1\nvalue = [0, 2]\nclass = 1", fillcolor="#399de5"] ;
203 -> 204 ;
205 [label="gini = 0.0\nsamples = 5\nvalue = [6, 0]\nclass = 0", fillcolor="#e58139"] ;
203 -> 205 ;
206 [label="gini = 0.0\nsamples = 3\nvalue = [6, 0]\nclass = 0", fillcolor="#e58139"] ;
202 -> 206 ;
207 [label="gini = 0.0\nsamples = 48\nvalue = [72, 0]\nclass = 0", fillcolor="#e58139"] ;
199 -> 207 ;
208 [label="gini = 0.0\nsamples = 1\nvalue = [0, 1]\nclass = 1", fillcolor="#399de5"] ;
198 -> 208 ;
209 [label="X[22] <= 0.45\ngini = 0.5\nsamples = 2\nvalue = [1, 1]\nclass = 0", fillcolor="#ffffff"] ;
189 -> 209 ;
210 [label="gini = 0.0\nsamples = 1\nvalue = [0, 1]\nclass = 1", fillcolor="#399de5"] ;
209 -> 210 ;
211 [label="gini = 0.0\nsamples = 1\nvalue = [1, 0]\nclass = 0", fillcolor="#e58139"] ;
209 -> 211 ;
212 [label="X[20] <= -0.96\ngini = 0.09\nsamples = 50\nvalue = [78, 4]\nclass = 0", fillcolor="#e68743"] ;
186 -> 212 ;
213 [label="X[26] <= -0.63\ngini = 0.44\nsamples = 4\nvalue = [4, 2]\nclass = 0", fillcolor="#f2c09c"] ;
212 -> 213 ;
214 [label="gini = 0.0\nsamples = 2\nvalue = [3, 0]\nclass = 0", fillcolor="#e58139"] ;
213 -> 214 ;
215 [label="X[26] <= -0.57\ngini = 0.44\nsamples = 2\nvalue = [1, 2]\nclass = 1", fillcolor="#9ccef2"] ;
213 -> 215 ;
216 [label="gini = 0.0\nsamples = 1\nvalue = [0, 2]\nclass = 1", fillcolor="#399de5"] ;
215 -> 216 ;
217 [label="gini = 0.0\nsamples = 1\nvalue = [1, 0]\nclass = 0", fillcolor="#e58139"] ;
215 -> 217 ;
218 [label="X[27] <= 1.52\ngini = 0.05\nsamples = 46\nvalue = [74, 2]\nclass = 0", fillcolor="#e6843e"] ;
212 -> 218 ;
219 [label="X[27] <= 1.19\ngini = 0.03\nsamples = 45\nvalue = [74, 1]\nclass = 0", fillcolor="#e5833c"] ;
218 -> 219 ;
220 [label="gini = 0.0\nsamples = 42\nvalue = [72, 0]\nclass = 0", fillcolor="#e58139"] ;
219 -> 220 ;
221 [label="X[30] <= 0.58\ngini = 0.44\nsamples = 3\nvalue = [2, 1]\nclass = 0", fillcolor="#f2c09c"] ;
219 -> 221 ;
222 [label="X[33] <= -0.37\ngini = 0.5\nsamples = 2\nvalue = [1, 1]\nclass = 0", fillcolor="#ffffff"] ;
221 -> 222 ;
223 [label="gini = 0.0\nsamples = 1\nvalue = [0, 1]\nclass = 1", fillcolor="#399de5"] ;
222 -> 223 ;
224 [label="gini = 0.0\nsamples = 1\nvalue = [1, 0]\nclass = 0", fillcolor="#e58139"] ;
222 -> 224 ;
225 [label="gini = 0.0\nsamples = 1\nvalue = [1, 0]\nclass = 0", fillcolor="#e58139"] ;
221 -> 225 ;
226 [label="gini = 0.0\nsamples = 1\nvalue = [0, 1]\nclass = 1", fillcolor="#399de5"] ;
218 -> 226 ;
227 [label="X[30] <= 0.58\ngini = 0.01\nsamples = 117\nvalue = [189, 1]\nclass = 0", fillcolor="#e5823a"] ;
185 -> 227 ;
228 [label="X[5] <= 2.49\ngini = 0.02\nsamples = 77\nvalue = [114, 1]\nclass = 0", fillcolor="#e5823b"] ;
227 -> 228 ;
229 [label="gini = 0.0\nsamples = 76\nvalue = [114, 0]\nclass = 0", fillcolor="#e58139"] ;
228 -> 229 ;
230 [label="gini = 0.0\nsamples = 1\nvalue = [0, 1]\nclass = 1", fillcolor="#399de5"] ;
228 -> 230 ;
231 [label="gini = 0.0\nsamples = 40\nvalue = [75, 0]\nclass = 0", fillcolor="#e58139"] ;
227 -> 231 ;
232 [label="X[44] <= -0.4\ngini = 0.47\nsamples = 15\nvalue = [13, 8]\nclass = 0", fillcolor="#f5cfb3"] ;
184 -> 232 ;
233 [label="gini = 0.0\nsamples = 2\nvalue = [0, 3]\nclass = 1", fillcolor="#399de5"] ;
232 -> 233 ;
234 [label="X[15] <= -0.05\ngini = 0.4\nsamples = 13\nvalue = [13, 5]\nclass = 0", fillcolor="#efb185"] ;
232 -> 234 ;
235 [label="X[30] <= 0.58\ngini = 0.23\nsamples = 10\nvalue = [13, 2]\nclass = 0", fillcolor="#e99457"] ;
234 -> 235 ;
236 [label="X[2] <= -0.43\ngini = 0.15\nsamples = 8\nvalue = [11, 1]\nclass = 0", fillcolor="#e78c4b"] ;
235 -> 236 ;
237 [label="X[21] <= -0.76\ngini = 0.32\nsamples = 3\nvalue = [4, 1]\nclass = 0", fillcolor="#eca06a"] ;
236 -> 237 ;
238 [label="gini = 0.0\nsamples = 1\nvalue = [2, 0]\nclass = 0", fillcolor="#e58139"] ;
237 -> 238 ;
239 [label="X[39] <= 0.34\ngini = 0.44\nsamples = 2\nvalue = [2, 1]\nclass = 0", fillcolor="#f2c09c"] ;
237 -> 239 ;
240 [label="gini = 0.0\nsamples = 1\nvalue = [2, 0]\nclass = 0", fillcolor="#e58139"] ;
239 -> 240 ;
241 [label="gini = 0.0\nsamples = 1\nvalue = [0, 1]\nclass = 1", fillcolor="#399de5"] ;
239 -> 241 ;
242 [label="gini = 0.0\nsamples = 5\nvalue = [7, 0]\nclass = 0", fillcolor="#e58139"] ;
236 -> 242 ;
243 [label="X[3] <= -0.05\ngini = 0.44\nsamples = 2\nvalue = [2, 1]\nclass = 0", fillcolor="#f2c09c"] ;
235 -> 243 ;
244 [label="gini = 0.0\nsamples = 1\nvalue = [2, 0]\nclass = 0", fillcolor="#e58139"] ;
243 -> 244 ;
245 [label="gini = 0.0\nsamples = 1\nvalue = [0, 1]\nclass = 1", fillcolor="#399de5"] ;
243 -> 245 ;
246 [label="gini = 0.0\nsamples = 3\nvalue = [0, 3]\nclass = 1", fillcolor="#399de5"] ;
234 -> 246 ;
247 [label="X[33] <= -0.12\ngini = 0.32\nsamples = 89\nvalue = [27, 107]\nclass = 1", fillcolor="#6bb6ec"] ;
183 -> 247 ;
248 [label="X[41] <= 2.74\ngini = 0.42\nsamples = 52\nvalue = [25, 60]\nclass = 1", fillcolor="#8bc6f0"] ;
247 -> 248 ;
249 [label="X[4] <= 0.54\ngini = 0.4\nsamples = 51\nvalue = [23, 60]\nclass = 1", fillcolor="#85c3ef"] ;
248 -> 249 ;
250 [label="X[33] <= -0.42\ngini = 0.33\nsamples = 46\nvalue = [16, 60]\nclass = 1", fillcolor="#6eb7ec"] ;
249 -> 250 ;
251 [label="X[10] <= 0.03\ngini = 0.19\nsamples = 40\nvalue = [7, 59]\nclass = 1", fillcolor="#50a9e8"] ;
250 -> 251 ;
252 [label="X[20] <= -0.41\ngini = 0.14\nsamples = 39\nvalue = [5, 59]\nclass = 1", fillcolor="#4aa5e7"] ;
251 -> 252 ;
253 [label="X[46] <= -0.89\ngini = 0.31\nsamples = 12\nvalue = [4, 17]\nclass = 1", fillcolor="#68b4eb"] ;
252 -> 253 ;
254 [label="gini = 0.0\nsamples = 1\nvalue = [3, 0]\nclass = 0", fillcolor="#e58139"] ;
253 -> 254 ;
255 [label="X[2] <= -0.7\ngini = 0.1\nsamples = 11\nvalue = [1, 17]\nclass = 1", fillcolor="#45a3e7"] ;
253 -> 255 ;
256 [label="gini = 0.0\nsamples = 1\nvalue = [1, 0]\nclass = 0", fillcolor="#e58139"] ;
255 -> 256 ;
257 [label="gini = 0.0\nsamples = 10\nvalue = [0, 17]\nclass = 1", fillcolor="#399de5"] ;
255 -> 257 ;
258 [label="X[47] <= -0.91\ngini = 0.05\nsamples = 27\nvalue = [1, 42]\nclass = 1", fillcolor="#3e9fe6"] ;
252 -> 258 ;
259 [label="gini = 0.0\nsamples = 24\nvalue = [0, 39]\nclass = 1", fillcolor="#399de5"] ;
258 -> 259 ;
260 [label="X[15] <= -0.05\ngini = 0.38\nsamples = 3\nvalue = [1, 3]\nclass = 1", fillcolor="#7bbeee"] ;
258 -> 260 ;
261 [label="X[3] <= 0.04\ngini = 0.5\nsamples = 2\nvalue = [1, 1]\nclass = 0", fillcolor="#ffffff"] ;
260 -> 261 ;
262 [label="gini = 0.0\nsamples = 1\nvalue = [1, 0]\nclass = 0", fillcolor="#e58139"] ;
261 -> 262 ;
263 [label="gini = 0.0\nsamples = 1\nvalue = [0, 1]\nclass = 1", fillcolor="#399de5"] ;
261 -> 263 ;
264 [label="gini = 0.0\nsamples = 1\nvalue = [0, 2]\nclass = 1", fillcolor="#399de5"] ;
260 -> 264 ;
265 [label="gini = 0.0\nsamples = 1\nvalue = [2, 0]\nclass = 0", fillcolor="#e58139"] ;
251 -> 265 ;
266 [label="X[1] <= -0.11\ngini = 0.18\nsamples = 6\nvalue = [9, 1]\nclass = 0", fillcolor="#e88f4f"] ;
250 -> 266 ;
267 [label="gini = 0.0\nsamples = 1\nvalue = [0, 1]\nclass = 1", fillcolor="#399de5"] ;
266 -> 267 ;
268 [label="gini = 0.0\nsamples = 5\nvalue = [9, 0]\nclass = 0", fillcolor="#e58139"] ;
266 -> 268 ;
269 [label="gini = 0.0\nsamples = 5\nvalue = [7, 0]\nclass = 0", fillcolor="#e58139"] ;
249 -> 269 ;
270 [label="gini = 0.0\nsamples = 1\nvalue = [2, 0]\nclass = 0", fillcolor="#e58139"] ;
248 -> 270 ;
271 [label="X[0] <= 0.04\ngini = 0.08\nsamples = 37\nvalue = [2, 47]\nclass = 1", fillcolor="#41a1e6"] ;
247 -> 271 ;
272 [label="X[32] <= 1.9\ngini = 0.21\nsamples = 12\nvalue = [2, 15]\nclass = 1", fillcolor="#53aae8"] ;
271 -> 272 ;
273 [label="gini = 0.0\nsamples = 11\nvalue = [0, 15]\nclass = 1", fillcolor="#399de5"] ;
272 -> 273 ;
274 [label="gini = 0.0\nsamples = 1\nvalue = [2, 0]\nclass = 0", fillcolor="#e58139"] ;
272 -> 274 ;
275 [label="gini = 0.0\nsamples = 25\nvalue = [0, 32]\nclass = 1", fillcolor="#399de5"] ;
271 -> 275 ;
276 [label="X[46] <= -0.89\ngini = 0.36\nsamples = 190\nvalue = [69, 223]\nclass = 1", fillcolor="#76bbed"] ;
74 -> 276 ;
277 [label="X[20] <= 0.45\ngini = 0.47\nsamples = 46\nvalue = [43, 26]\nclass = 0", fillcolor="#f5cdb1"] ;
276 -> 277 ;
278 [label="X[33] <= 1.24\ngini = 0.28\nsamples = 27\nvalue = [34, 7]\nclass = 0", fillcolor="#ea9b62"] ;
277 -> 278 ;
279 [label="X[47] <= 0.21\ngini = 0.19\nsamples = 25\nvalue = [34, 4]\nclass = 0", fillcolor="#e89050"] ;
278 -> 279 ;
280 [label="X[2] <= 0.11\ngini = 0.5\nsamples = 5\nvalue = [4, 4]\nclass = 0", fillcolor="#ffffff"] ;
279 -> 280 ;
281 [label="gini = 0.0\nsamples = 3\nvalue = [4, 0]\nclass = 0", fillcolor="#e58139"] ;
280 -> 281 ;
282 [label="gini = 0.0\nsamples = 2\nvalue = [0, 4]\nclass = 1", fillcolor="#399de5"] ;
280 -> 282 ;
283 [label="gini = 0.0\nsamples = 20\nvalue = [30, 0]\nclass = 0", fillcolor="#e58139"] ;
279 -> 283 ;
284 [label="gini = 0.0\nsamples = 2\nvalue = [0, 3]\nclass = 1", fillcolor="#399de5"] ;
278 -> 284 ;
285 [label="X[47] <= 0.21\ngini = 0.44\nsamples = 19\nvalue = [9, 19]\nclass = 1", fillcolor="#97cbf1"] ;
277 -> 285 ;
286 [label="gini = 0.0\nsamples = 11\nvalue = [0, 16]\nclass = 1", fillcolor="#399de5"] ;
285 -> 286 ;
287 [label="X[44] <= -0.4\ngini = 0.38\nsamples = 8\nvalue = [9, 3]\nclass = 0", fillcolor="#eeab7b"] ;
285 -> 287 ;
288 [label="gini = 0.0\nsamples = 6\nvalue = [9, 0]\nclass = 0", fillcolor="#e58139"] ;
287 -> 288 ;
289 [label="gini = 0.0\nsamples = 2\nvalue = [0, 3]\nclass = 1", fillcolor="#399de5"] ;
287 -> 289 ;
290 [label="X[2] <= -0.97\ngini = 0.21\nsamples = 144\nvalue = [26, 197]\nclass = 1", fillcolor="#53aae8"] ;
276 -> 290 ;
291 [label="X[30] <= 0.58\ngini = 0.2\nsamples = 10\nvalue = [16, 2]\nclass = 0", fillcolor="#e89152"] ;
290 -> 291 ;
292 [label="gini = 0.0\nsamples = 5\nvalue = [10, 0]\nclass = 0", fillcolor="#e58139"] ;
291 -> 292 ;
293 [label="X[3] <= -1.34\ngini = 0.38\nsamples = 5\nvalue = [6, 2]\nclass = 0", fillcolor="#eeab7b"] ;
291 -> 293 ;
294 [label="gini = 0.0\nsamples = 3\nvalue = [5, 0]\nclass = 0", fillcolor="#e58139"] ;
293 -> 294 ;
295 [label="X[43] <= 0.59\ngini = 0.44\nsamples = 2\nvalue = [1, 2]\nclass = 1", fillcolor="#9ccef2"] ;
293 -> 295 ;
296 [label="gini = 0.0\nsamples = 1\nvalue = [1, 0]\nclass = 0", fillcolor="#e58139"] ;
295 -> 296 ;
297 [label="gini = 0.0\nsamples = 1\nvalue = [0, 2]\nclass = 1", fillcolor="#399de5"] ;
295 -> 297 ;
298 [label="X[44] <= -0.96\ngini = 0.09\nsamples = 134\nvalue = [10, 195]\nclass = 1", fillcolor="#43a2e6"] ;
290 -> 298 ;
299 [label="X[8] <= 1.05\ngini = 0.3\nsamples = 29\nvalue = [9, 40]\nclass = 1", fillcolor="#66b3eb"] ;
298 -> 299 ;
300 [label="X[8] <= 0.16\ngini = 0.23\nsamples = 27\nvalue = [6, 40]\nclass = 1", fillcolor="#57ace9"] ;
299 -> 300 ;
301 [label="X[20] <= -0.53\ngini = 0.2\nsamples = 25\nvalue = [5, 39]\nclass = 1", fillcolor="#52aae8"] ;
300 -> 301 ;
302 [label="gini = 0.0\nsamples = 8\nvalue = [0, 15]\nclass = 1", fillcolor="#399de5"] ;
301 -> 302 ;
303 [label="X[26] <= -0.52\ngini = 0.29\nsamples = 17\nvalue = [5, 24]\nclass = 1", fillcolor="#62b1ea"] ;
301 -> 303 ;
304 [label="gini = 0.0\nsamples = 14\nvalue = [0, 24]\nclass = 1", fillcolor="#399de5"] ;
303 -> 304 ;
305 [label="gini = 0.0\nsamples = 3\nvalue = [5, 0]\nclass = 0", fillcolor="#e58139"] ;
303 -> 305 ;
306 [label="X[21] <= -0.13\ngini = 0.5\nsamples = 2\nvalue = [1, 1]\nclass = 0", fillcolor="#ffffff"] ;
300 -> 306 ;
307 [label="gini = 0.0\nsamples = 1\nvalue = [0, 1]\nclass = 1", fillcolor="#399de5"] ;
306 -> 307 ;
308 [label="gini = 0.0\nsamples = 1\nvalue = [1, 0]\nclass = 0", fillcolor="#e58139"] ;
306 -> 308 ;
309 [label="gini = 0.0\nsamples = 2\nvalue = [3, 0]\nclass = 0", fillcolor="#e58139"] ;
299 -> 309 ;
310 [label="X[45] <= -2.48\ngini = 0.01\nsamples = 105\nvalue = [1, 155]\nclass = 1", fillcolor="#3a9ee5"] ;
298 -> 310 ;
311 [label="X[26] <= 0.36\ngini = 0.22\nsamples = 5\nvalue = [1, 7]\nclass = 1", fillcolor="#55abe9"] ;
310 -> 311 ;
312 [label="X[26] <= -0.68\ngini = 0.44\nsamples = 3\nvalue = [1, 2]\nclass = 1", fillcolor="#9ccef2"] ;
311 -> 312 ;
313 [label="gini = 0.0\nsamples = 2\nvalue = [0, 2]\nclass = 1", fillcolor="#399de5"] ;
312 -> 313 ;
314 [label="gini = 0.0\nsamples = 1\nvalue = [1, 0]\nclass = 0", fillcolor="#e58139"] ;
312 -> 314 ;
315 [label="gini = 0.0\nsamples = 2\nvalue = [0, 5]\nclass = 1", fillcolor="#399de5"] ;
311 -> 315 ;
316 [label="gini = 0.0\nsamples = 100\nvalue = [0, 148]\nclass = 1", fillcolor="#399de5"] ;
310 -> 316 ;
317 [label="X[45] <= -0.56\ngini = 0.04\nsamples = 672\nvalue = [24, 1023]\nclass = 1", fillcolor="#3e9fe6"] ;
1 -> 317 ;
318 [label="X[43] <= -0.63\ngini = 0.1\nsamples = 117\nvalue = [9, 169]\nclass = 1", fillcolor="#44a2e6"] ;
317 -> 318 ;
319 [label="X[30] <= 0.58\ngini = 0.27\nsamples = 16\nvalue = [4, 21]\nclass = 1", fillcolor="#5fb0ea"] ;
318 -> 319 ;
320 [label="gini = 0.0\nsamples = 12\nvalue = [0, 19]\nclass = 1", fillcolor="#399de5"] ;
319 -> 320 ;
321 [label="X[10] <= 0.77\ngini = 0.44\nsamples = 4\nvalue = [4, 2]\nclass = 0", fillcolor="#f2c09c"] ;
319 -> 321 ;
322 [label="X[2] <= 0.37\ngini = 0.32\nsamples = 3\nvalue = [4, 1]\nclass = 0", fillcolor="#eca06a"] ;
321 -> 322 ;
323 [label="gini = 0.0\nsamples = 2\nvalue = [4, 0]\nclass = 0", fillcolor="#e58139"] ;
322 -> 323 ;
324 [label="gini = 0.0\nsamples = 1\nvalue = [0, 1]\nclass = 1", fillcolor="#399de5"] ;
322 -> 324 ;
325 [label="gini = 0.0\nsamples = 1\nvalue = [0, 1]\nclass = 1", fillcolor="#399de5"] ;
321 -> 325 ;
326 [label="X[28] <= 0.89\ngini = 0.06\nsamples = 101\nvalue = [5, 148]\nclass = 1", fillcolor="#40a0e6"] ;
318 -> 326 ;
327 [label="X[43] <= 0.59\ngini = 0.04\nsamples = 67\nvalue = [2, 102]\nclass = 1", fillcolor="#3d9fe6"] ;
326 -> 327 ;
328 [label="X[4] <= -0.1\ngini = 0.09\nsamples = 25\nvalue = [2, 38]\nclass = 1", fillcolor="#43a2e6"] ;
327 -> 328 ;
329 [label="X[27] <= 1.29\ngini = 0.13\nsamples = 21\nvalue = [2, 27]\nclass = 1", fillcolor="#48a4e7"] ;
328 -> 329 ;
330 [label="X[39] <= 0.34\ngini = 0.5\nsamples = 3\nvalue = [2, 2]\nclass = 0", fillcolor="#ffffff"] ;
329 -> 330 ;
331 [label="gini = 0.0\nsamples = 2\nvalue = [0, 2]\nclass = 1", fillcolor="#399de5"] ;
330 -> 331 ;
332 [label="gini = 0.0\nsamples = 1\nvalue = [2, 0]\nclass = 0", fillcolor="#e58139"] ;
330 -> 332 ;
333 [label="gini = 0.0\nsamples = 18\nvalue = [0, 25]\nclass = 1", fillcolor="#399de5"] ;
329 -> 333 ;
334 [label="gini = 0.0\nsamples = 4\nvalue = [0, 11]\nclass = 1", fillcolor="#399de5"] ;
328 -> 334 ;
335 [label="gini = 0.0\nsamples = 42\nvalue = [0, 64]\nclass = 1", fillcolor="#399de5"] ;
327 -> 335 ;
336 [label="X[1] <= -0.11\ngini = 0.11\nsamples = 34\nvalue = [3, 46]\nclass = 1", fillcolor="#46a3e7"] ;
326 -> 336 ;
337 [label="X[0] <= 0.04\ngini = 0.2\nsamples = 17\nvalue = [3, 24]\nclass = 1", fillcolor="#52a9e8"] ;
336 -> 337 ;
338 [label="X[26] <= 2.14\ngini = 0.23\nsamples = 14\nvalue = [3, 20]\nclass = 1", fillcolor="#57ace9"] ;
337 -> 338 ;
339 [label="X[38] <= 1.11\ngini = 0.5\nsamples = 3\nvalue = [3, 3]\nclass = 0", fillcolor="#ffffff"] ;
338 -> 339 ;
340 [label="gini = 0.0\nsamples = 2\nvalue = [0, 3]\nclass = 1", fillcolor="#399de5"] ;
339 -> 340 ;
341 [label="gini = 0.0\nsamples = 1\nvalue = [3, 0]\nclass = 0", fillcolor="#e58139"] ;
339 -> 341 ;
342 [label="gini = 0.0\nsamples = 11\nvalue = [0, 17]\nclass = 1", fillcolor="#399de5"] ;
338 -> 342 ;
343 [label="gini = 0.0\nsamples = 3\nvalue = [0, 4]\nclass = 1", fillcolor="#399de5"] ;
337 -> 343 ;
344 [label="gini = 0.0\nsamples = 17\nvalue = [0, 22]\nclass = 1", fillcolor="#399de5"] ;
336 -> 344 ;
345 [label="X[29] <= -0.95\ngini = 0.03\nsamples = 555\nvalue = [15, 854]\nclass = 1", fillcolor="#3c9fe5"] ;
317 -> 345 ;
346 [label="X[38] <= 1.11\ngini = 0.35\nsamples = 33\nvalue = [13, 44]\nclass = 1", fillcolor="#74baed"] ;
345 -> 346 ;
347 [label="X[47] <= 0.21\ngini = 0.34\nsamples = 32\nvalue = [12, 44]\nclass = 1", fillcolor="#6fb8ec"] ;
346 -> 347 ;
348 [label="X[4] <= -0.42\ngini = 0.47\nsamples = 6\nvalue = [5, 3]\nclass = 0", fillcolor="#f5cdb0"] ;
347 -> 348 ;
349 [label="gini = 0.0\nsamples = 3\nvalue = [3, 0]\nclass = 0", fillcolor="#e58139"] ;
348 -> 349 ;
350 [label="X[46] <= -0.89\ngini = 0.48\nsamples = 3\nvalue = [2, 3]\nclass = 1", fillcolor="#bddef6"] ;
348 -> 350 ;
351 [label="gini = 0.0\nsamples = 1\nvalue = [1, 0]\nclass = 0", fillcolor="#e58139"] ;
350 -> 351 ;
352 [label="X[39] <= 0.34\ngini = 0.38\nsamples = 2\nvalue = [1, 3]\nclass = 1", fillcolor="#7bbeee"] ;
350 -> 352 ;
353 [label="gini = 0.0\nsamples = 1\nvalue = [0, 3]\nclass = 1", fillcolor="#399de5"] ;
352 -> 353 ;
354 [label="gini = 0.0\nsamples = 1\nvalue = [1, 0]\nclass = 0", fillcolor="#e58139"] ;
352 -> 354 ;
355 [label="X[18] <= 0.14\ngini = 0.25\nsamples = 26\nvalue = [7, 41]\nclass = 1", fillcolor="#5baee9"] ;
347 -> 355 ;
356 [label="X[46] <= -0.23\ngini = 0.29\nsamples = 20\nvalue = [7, 32]\nclass = 1", fillcolor="#64b2eb"] ;
355 -> 356 ;
357 [label="gini = 0.0\nsamples = 1\nvalue = [1, 0]\nclass = 0", fillcolor="#e58139"] ;
356 -> 357 ;
358 [label="X[27] <= -0.37\ngini = 0.27\nsamples = 19\nvalue = [6, 32]\nclass = 1", fillcolor="#5eafea"] ;
356 -> 358 ;
359 [label="gini = 0.0\nsamples = 17\nvalue = [0, 32]\nclass = 1", fillcolor="#399de5"] ;
358 -> 359 ;
360 [label="gini = 0.0\nsamples = 2\nvalue = [6, 0]\nclass = 0", fillcolor="#e58139"] ;
358 -> 360 ;
361 [label="gini = 0.0\nsamples = 6\nvalue = [0, 9]\nclass = 1", fillcolor="#399de5"] ;
355 -> 361 ;
362 [label="gini = 0.0\nsamples = 1\nvalue = [1, 0]\nclass = 0", fillcolor="#e58139"] ;
346 -> 362 ;
363 [label="X[46] <= -0.89\ngini = 0.0\nsamples = 522\nvalue = [2, 810]\nclass = 1", fillcolor="#399de5"] ;
345 -> 363 ;
364 [label="gini = 0.0\nsamples = 370\nvalue = [0, 579]\nclass = 1", fillcolor="#399de5"] ;
363 -> 364 ;
365 [label="X[46] <= 0.43\ngini = 0.02\nsamples = 152\nvalue = [2, 231]\nclass = 1", fillcolor="#3b9ee5"] ;
363 -> 365 ;
366 [label="X[28] <= 0.89\ngini = 0.08\nsamples = 27\nvalue = [2, 43]\nclass = 1", fillcolor="#42a2e6"] ;
365 -> 366 ;
367 [label="X[0] <= 0.04\ngini = 0.32\nsamples = 5\nvalue = [2, 8]\nclass = 1", fillcolor="#6ab6ec"] ;
366 -> 367 ;
368 [label="X[21] <= -0.65\ngini = 0.5\nsamples = 2\nvalue = [2, 2]\nclass = 0", fillcolor="#ffffff"] ;
367 -> 368 ;
369 [label="gini = 0.0\nsamples = 1\nvalue = [0, 2]\nclass = 1", fillcolor="#399de5"] ;
368 -> 369 ;
370 [label="gini = 0.0\nsamples = 1\nvalue = [2, 0]\nclass = 0", fillcolor="#e58139"] ;
368 -> 370 ;
371 [label="gini = 0.0\nsamples = 3\nvalue = [0, 6]\nclass = 1", fillcolor="#399de5"] ;
367 -> 371 ;
372 [label="gini = 0.0\nsamples = 22\nvalue = [0, 35]\nclass = 1", fillcolor="#399de5"] ;
366 -> 372 ;
373 [label="gini = 0.0\nsamples = 125\nvalue = [0, 188]\nclass = 1", fillcolor="#399de5"] ;
365 -> 373 ;
374 [label="X[47] <= -0.91\ngini = 0.45\nsamples = 2457\nvalue = [2538, 1306]\nclass = 0", fillcolor="#f2c29f"] ;
0 -> 374 [labeldistance=2.5, labelangle=-45, headlabel="False"] ;
375 [label="X[26] <= 1.09\ngini = 0.14\nsamples = 476\nvalue = [55, 675]\nclass = 1", fillcolor="#49a5e7"] ;
374 -> 375 ;
376 [label="gini = 0.0\nsamples = 250\nvalue = [0, 381]\nclass = 1", fillcolor="#399de5"] ;
375 -> 376 ;
377 [label="X[29] <= -0.95\ngini = 0.27\nsamples = 226\nvalue = [55, 294]\nclass = 1", fillcolor="#5eafea"] ;
375 -> 377 ;
378 [label="gini = 0.0\nsamples = 14\nvalue = [19, 0]\nclass = 0", fillcolor="#e58139"] ;
377 -> 378 ;
379 [label="X[4] <= 0.54\ngini = 0.19\nsamples = 212\nvalue = [36, 294]\nclass = 1", fillcolor="#51a9e8"] ;
377 -> 379 ;
380 [label="X[45] <= -0.56\ngini = 0.09\nsamples = 192\nvalue = [14, 289]\nclass = 1", fillcolor="#43a2e6"] ;
379 -> 380 ;
381 [label="X[22] <= 0.59\ngini = 0.3\nsamples = 27\nvalue = [8, 36]\nclass = 1", fillcolor="#65b3eb"] ;
380 -> 381 ;
382 [label="X[34] <= 0.69\ngini = 0.31\nsamples = 25\nvalue = [8, 33]\nclass = 1", fillcolor="#69b5eb"] ;
381 -> 382 ;
383 [label="gini = 0.0\nsamples = 2\nvalue = [3, 0]\nclass = 0", fillcolor="#e58139"] ;
382 -> 383 ;
384 [label="X[27] <= 1.51\ngini = 0.23\nsamples = 23\nvalue = [5, 33]\nclass = 1", fillcolor="#57ace9"] ;
382 -> 384 ;
385 [label="X[4] <= 0.22\ngini = 0.46\nsamples = 10\nvalue = [5, 9]\nclass = 1", fillcolor="#a7d3f3"] ;
384 -> 385 ;
386 [label="X[8] <= 0.61\ngini = 0.43\nsamples = 9\nvalue = [4, 9]\nclass = 1", fillcolor="#91c9f1"] ;
385 -> 386 ;
387 [label="X[27] <= 0.46\ngini = 0.3\nsamples = 7\nvalue = [2, 9]\nclass = 1", fillcolor="#65b3eb"] ;
386 -> 387 ;
388 [label="gini = 0.0\nsamples = 5\nvalue = [0, 7]\nclass = 1", fillcolor="#399de5"] ;
387 -> 388 ;
389 [label="X[18] <= 0.14\ngini = 0.5\nsamples = 2\nvalue = [2, 2]\nclass = 0", fillcolor="#ffffff"] ;
387 -> 389 ;
390 [label="gini = 0.0\nsamples = 1\nvalue = [2, 0]\nclass = 0", fillcolor="#e58139"] ;
389 -> 390 ;
391 [label="gini = 0.0\nsamples = 1\nvalue = [0, 2]\nclass = 1", fillcolor="#399de5"] ;
389 -> 391 ;
392 [label="gini = 0.0\nsamples = 2\nvalue = [2, 0]\nclass = 0", fillcolor="#e58139"] ;
386 -> 392 ;
393 [label="gini = 0.0\nsamples = 1\nvalue = [1, 0]\nclass = 0", fillcolor="#e58139"] ;
385 -> 393 ;
394 [label="gini = 0.0\nsamples = 13\nvalue = [0, 24]\nclass = 1", fillcolor="#399de5"] ;
384 -> 394 ;
395 [label="gini = 0.0\nsamples = 2\nvalue = [0, 3]\nclass = 1", fillcolor="#399de5"] ;
381 -> 395 ;
396 [label="X[20] <= -1.15\ngini = 0.05\nsamples = 165\nvalue = [6, 253]\nclass = 1", fillcolor="#3e9fe6"] ;
380 -> 396 ;
397 [label="X[20] <= -1.39\ngini = 0.32\nsamples = 12\nvalue = [4, 16]\nclass = 1", fillcolor="#6ab6ec"] ;
396 -> 397 ;
398 [label="gini = 0.0\nsamples = 8\nvalue = [0, 13]\nclass = 1", fillcolor="#399de5"] ;
397 -> 398 ;
399 [label="X[8] <= 0.16\ngini = 0.49\nsamples = 4\nvalue = [4, 3]\nclass = 0", fillcolor="#f8e0ce"] ;
397 -> 399 ;
400 [label="gini = 0.0\nsamples = 2\nvalue = [0, 3]\nclass = 1", fillcolor="#399de5"] ;
399 -> 400 ;
401 [label="gini = 0.0\nsamples = 2\nvalue = [4, 0]\nclass = 0", fillcolor="#e58139"] ;
399 -> 401 ;
402 [label="X[38] <= 1.11\ngini = 0.02\nsamples = 153\nvalue = [2, 237]\nclass = 1", fillcolor="#3b9ee5"] ;
396 -> 402 ;
403 [label="X[4] <= -0.1\ngini = 0.01\nsamples = 152\nvalue = [1, 237]\nclass = 1", fillcolor="#3a9de5"] ;
402 -> 403 ;
404 [label="gini = 0.0\nsamples = 143\nvalue = [0, 226]\nclass = 1", fillcolor="#399de5"] ;
403 -> 404 ;
405 [label="X[44] <= -0.96\ngini = 0.15\nsamples = 9\nvalue = [1, 11]\nclass = 1", fillcolor="#4ba6e7"] ;
403 -> 405 ;
406 [label="X[2] <= 0.11\ngini = 0.44\nsamples = 3\nvalue = [1, 2]\nclass = 1", fillcolor="#9ccef2"] ;
405 -> 406 ;
407 [label="gini = 0.0\nsamples = 1\nvalue = [0, 1]\nclass = 1", fillcolor="#399de5"] ;
406 -> 407 ;
408 [label="X[3] <= 0.68\ngini = 0.5\nsamples = 2\nvalue = [1, 1]\nclass = 0", fillcolor="#ffffff"] ;
406 -> 408 ;
409 [label="gini = 0.0\nsamples = 1\nvalue = [1, 0]\nclass = 0", fillcolor="#e58139"] ;
408 -> 409 ;
410 [label="gini = 0.0\nsamples = 1\nvalue = [0, 1]\nclass = 1", fillcolor="#399de5"] ;
408 -> 410 ;
411 [label="gini = 0.0\nsamples = 6\nvalue = [0, 9]\nclass = 1", fillcolor="#399de5"] ;
405 -> 411 ;
412 [label="gini = 0.0\nsamples = 1\nvalue = [1, 0]\nclass = 0", fillcolor="#e58139"] ;
402 -> 412 ;
413 [label="X[33] <= -0.18\ngini = 0.3\nsamples = 20\nvalue = [22, 5]\nclass = 0", fillcolor="#eb9e66"] ;
379 -> 413 ;
414 [label="X[13] <= 0.28\ngini = 0.08\nsamples = 17\nvalue = [22, 1]\nclass = 0", fillcolor="#e68742"] ;
413 -> 414 ;
415 [label="gini = 0.0\nsamples = 11\nvalue = [12, 0]\nclass = 0", fillcolor="#e58139"] ;
414 -> 415 ;
416 [label="X[3] <= 0.66\ngini = 0.17\nsamples = 6\nvalue = [10, 1]\nclass = 0", fillcolor="#e88e4d"] ;
414 -> 416 ;
417 [label="gini = 0.0\nsamples = 1\nvalue = [0, 1]\nclass = 1", fillcolor="#399de5"] ;
416 -> 417 ;
418 [label="gini = 0.0\nsamples = 5\nvalue = [10, 0]\nclass = 0", fillcolor="#e58139"] ;
416 -> 418 ;
419 [label="gini = 0.0\nsamples = 3\nvalue = [0, 4]\nclass = 1", fillcolor="#399de5"] ;
413 -> 419 ;
420 [label="X[34] <= 0.69\ngini = 0.32\nsamples = 1981\nvalue = [2483, 631]\nclass = 0", fillcolor="#eca16b"] ;
374 -> 420 ;
421 [label="X[12] <= 10.38\ngini = 0.27\nsamples = 1871\nvalue = [2466, 464]\nclass = 0", fillcolor="#ea995e"] ;
420 -> 421 ;
422 [label="X[39] <= 0.34\ngini = 0.26\nsamples = 1860\nvalue = [2466, 449]\nclass = 0", fillcolor="#ea985d"] ;
421 -> 422 ;
423 [label="X[4] <= 0.86\ngini = 0.36\nsamples = 1099\nvalue = [1328, 410]\nclass = 0", fillcolor="#eda876"] ;
422 -> 423 ;
424 [label="X[21] <= 0.57\ngini = 0.41\nsamples = 884\nvalue = [1004, 401]\nclass = 0", fillcolor="#efb388"] ;
423 -> 424 ;
425 [label="X[13] <= 1.11\ngini = 0.3\nsamples = 686\nvalue = [889, 201]\nclass = 0", fillcolor="#eb9d66"] ;
424 -> 425 ;
426 [label="X[26] <= -0.7\ngini = 0.25\nsamples = 615\nvalue = [837, 140]\nclass = 0", fillcolor="#e9965a"] ;
425 -> 426 ;
427 [label="X[22] <= -0.25\ngini = 0.5\nsamples = 147\nvalue = [120, 125]\nclass = 1", fillcolor="#f7fbfe"] ;
426 -> 427 ;
428 [label="X[4] <= -0.1\ngini = 0.41\nsamples = 65\nvalue = [31, 75]\nclass = 1", fillcolor="#8bc6f0"] ;
427 -> 428 ;
429 [label="X[8] <= 0.16\ngini = 0.31\nsamples = 57\nvalue = [18, 75]\nclass = 1", fillcolor="#69b5eb"] ;
428 -> 429 ;
430 [label="X[46] <= 0.43\ngini = 0.1\nsamples = 49\nvalue = [4, 73]\nclass = 1", fillcolor="#44a2e6"] ;
429 -> 430 ;
431 [label="X[4] <= -0.42\ngini = 0.22\nsamples = 8\nvalue = [2, 14]\nclass = 1", fillcolor="#55abe9"] ;
430 -> 431 ;
432 [label="X[45] <= -1.52\ngini = 0.12\nsamples = 7\nvalue = [1, 14]\nclass = 1", fillcolor="#47a4e7"] ;
431 -> 432 ;
433 [label="gini = 0.0\nsamples = 5\nvalue = [0, 12]\nclass = 1", fillcolor="#399de5"] ;
432 -> 433 ;
434 [label="X[20] <= -0.16\ngini = 0.44\nsamples = 2\nvalue = [1, 2]\nclass = 1", fillcolor="#9ccef2"] ;
432 -> 434 ;
435 [label="gini = 0.0\nsamples = 1\nvalue = [0, 2]\nclass = 1", fillcolor="#399de5"] ;
434 -> 435 ;
436 [label="gini = 0.0\nsamples = 1\nvalue = [1, 0]\nclass = 0", fillcolor="#e58139"] ;
434 -> 436 ;
437 [label="gini = 0.0\nsamples = 1\nvalue = [1, 0]\nclass = 0", fillcolor="#e58139"] ;
431 -> 437 ;
438 [label="X[5] <= 0.66\ngini = 0.06\nsamples = 41\nvalue = [2, 59]\nclass = 1", fillcolor="#40a0e6"] ;
430 -> 438 ;
439 [label="X[13] <= 0.12\ngini = 0.07\nsamples = 36\nvalue = [2, 53]\nclass = 1", fillcolor="#40a1e6"] ;
438 -> 439 ;
440 [label="gini = 0.0\nsamples = 32\nvalue = [0, 51]\nclass = 1", fillcolor="#399de5"] ;
439 -> 440 ;
441 [label="X[0] <= 0.04\ngini = 0.5\nsamples = 4\nvalue = [2, 2]\nclass = 0", fillcolor="#ffffff"] ;
439 -> 441 ;
442 [label="gini = 0.0\nsamples = 2\nvalue = [0, 2]\nclass = 1", fillcolor="#399de5"] ;
441 -> 442 ;
443 [label="gini = 0.0\nsamples = 2\nvalue = [2, 0]\nclass = 0", fillcolor="#e58139"] ;
441 -> 443 ;
444 [label="gini = 0.0\nsamples = 5\nvalue = [0, 6]\nclass = 1", fillcolor="#399de5"] ;
438 -> 444 ;
445 [label="X[18] <= 0.14\ngini = 0.22\nsamples = 8\nvalue = [14, 2]\nclass = 0", fillcolor="#e99355"] ;
429 -> 445 ;
446 [label="X[30] <= 0.58\ngini = 0.35\nsamples = 3\nvalue = [7, 2]\nclass = 0", fillcolor="#eca572"] ;
445 -> 446 ;
447 [label="X[15] <= -0.05\ngini = 0.41\nsamples = 2\nvalue = [5, 2]\nclass = 0", fillcolor="#efb388"] ;
446 -> 447 ;
448 [label="gini = 0.0\nsamples = 1\nvalue = [0, 2]\nclass = 1", fillcolor="#399de5"] ;
447 -> 448 ;
449 [label="gini = 0.0\nsamples = 1\nvalue = [5, 0]\nclass = 0", fillcolor="#e58139"] ;
447 -> 449 ;
450 [label="gini = 0.0\nsamples = 1\nvalue = [2, 0]\nclass = 0", fillcolor="#e58139"] ;
446 -> 450 ;
451 [label="gini = 0.0\nsamples = 5\nvalue = [7, 0]\nclass = 0", fillcolor="#e58139"] ;
445 -> 451 ;
452 [label="gini = 0.0\nsamples = 8\nvalue = [13, 0]\nclass = 0", fillcolor="#e58139"] ;
428 -> 452 ;
453 [label="X[8] <= 2.85\ngini = 0.46\nsamples = 82\nvalue = [89, 50]\nclass = 0", fillcolor="#f4c8a8"] ;
427 -> 453 ;
454 [label="X[44] <= -0.96\ngini = 0.37\nsamples = 71\nvalue = [89, 29]\nclass = 0", fillcolor="#edaa7a"] ;
453 -> 454 ;
455 [label="X[13] <= 0.33\ngini = 0.43\nsamples = 13\nvalue = [6, 13]\nclass = 1", fillcolor="#94caf1"] ;
454 -> 455 ;
456 [label="X[21] <= -0.82\ngini = 0.48\nsamples = 7\nvalue = [6, 4]\nclass = 0", fillcolor="#f6d5bd"] ;
455 -> 456 ;
457 [label="gini = 0.0\nsamples = 3\nvalue = [5, 0]\nclass = 0", fillcolor="#e58139"] ;
456 -> 457 ;
458 [label="X[27] <= 0.68\ngini = 0.32\nsamples = 4\nvalue = [1, 4]\nclass = 1", fillcolor="#6ab6ec"] ;
456 -> 458 ;
459 [label="gini = 0.0\nsamples = 2\nvalue = [0, 3]\nclass = 1", fillcolor="#399de5"] ;
458 -> 459 ;
460 [label="X[46] <= -0.23\ngini = 0.5\nsamples = 2\nvalue = [1, 1]\nclass = 0", fillcolor="#ffffff"] ;
458 -> 460 ;
461 [label="gini = 0.0\nsamples = 1\nvalue = [0, 1]\nclass = 1", fillcolor="#399de5"] ;
460 -> 461 ;
462 [label="gini = 0.0\nsamples = 1\nvalue = [1, 0]\nclass = 0", fillcolor="#e58139"] ;
460 -> 462 ;
463 [label="gini = 0.0\nsamples = 6\nvalue = [0, 9]\nclass = 1", fillcolor="#399de5"] ;
455 -> 463 ;
464 [label="X[2] <= 1.18\ngini = 0.27\nsamples = 58\nvalue = [83, 16]\nclass = 0", fillcolor="#ea995f"] ;
454 -> 464 ;
465 [label="X[10] <= 0.77\ngini = 0.23\nsamples = 56\nvalue = [83, 13]\nclass = 0", fillcolor="#e99558"] ;
464 -> 465 ;
466 [label="X[38] <= 1.11\ngini = 0.38\nsamples = 31\nvalue = [39, 13]\nclass = 0", fillcolor="#eeab7b"] ;
465 -> 466 ;
467 [label="X[22] <= 0.61\ngini = 0.4\nsamples = 27\nvalue = [34, 13]\nclass = 0", fillcolor="#efb185"] ;
466 -> 467 ;
468 [label="X[24] <= 1.06\ngini = 0.15\nsamples = 21\nvalue = [34, 3]\nclass = 0", fillcolor="#e78c4a"] ;
467 -> 468 ;
469 [label="X[3] <= 0.26\ngini = 0.06\nsamples = 20\nvalue = [34, 1]\nclass = 0", fillcolor="#e6853f"] ;
468 -> 469 ;
470 [label="gini = 0.0\nsamples = 18\nvalue = [31, 0]\nclass = 0", fillcolor="#e58139"] ;
469 -> 470 ;
471 [label="X[29] <= -0.95\ngini = 0.38\nsamples = 2\nvalue = [3, 1]\nclass = 0", fillcolor="#eeab7b"] ;
469 -> 471 ;
472 [label="gini = 0.0\nsamples = 1\nvalue = [3, 0]\nclass = 0", fillcolor="#e58139"] ;
471 -> 472 ;
473 [label="gini = 0.0\nsamples = 1\nvalue = [0, 1]\nclass = 1", fillcolor="#399de5"] ;
471 -> 473 ;
474 [label="gini = 0.0\nsamples = 1\nvalue = [0, 2]\nclass = 1", fillcolor="#399de5"] ;
468 -> 474 ;
475 [label="gini = 0.0\nsamples = 6\nvalue = [0, 10]\nclass = 1", fillcolor="#399de5"] ;
467 -> 475 ;
476 [label="gini = 0.0\nsamples = 4\nvalue = [5, 0]\nclass = 0", fillcolor="#e58139"] ;
466 -> 476 ;
477 [label="gini = 0.0\nsamples = 25\nvalue = [44, 0]\nclass = 0", fillcolor="#e58139"] ;
465 -> 477 ;
478 [label="gini = 0.0\nsamples = 2\nvalue = [0, 3]\nclass = 1", fillcolor="#399de5"] ;
464 -> 478 ;
479 [label="gini = 0.0\nsamples = 11\nvalue = [0, 21]\nclass = 1", fillcolor="#399de5"] ;
453 -> 479 ;
480 [label="X[14] <= -4.64\ngini = 0.04\nsamples = 468\nvalue = [717, 15]\nclass = 0", fillcolor="#e6843d"] ;
426 -> 480 ;
481 [label="gini = 0.0\nsamples = 2\nvalue = [0, 2]\nclass = 1", fillcolor="#399de5"] ;
480 -> 481 ;
482 [label="X[20] <= 1.19\ngini = 0.03\nsamples = 466\nvalue = [717, 13]\nclass = 0", fillcolor="#e5833d"] ;
480 -> 482 ;
483 [label="X[11] <= 0.2\ngini = 0.03\nsamples = 452\nvalue = [701, 11]\nclass = 0", fillcolor="#e5833c"] ;
482 -> 483 ;
484 [label="gini = 0.0\nsamples = 301\nvalue = [468, 0]\nclass = 0", fillcolor="#e58139"] ;
483 -> 484 ;
485 [label="X[26] <= 0.05\ngini = 0.09\nsamples = 151\nvalue = [233, 11]\nclass = 0", fillcolor="#e68742"] ;
483 -> 485 ;
486 [label="X[3] <= 3.86\ngini = 0.03\nsamples = 138\nvalue = [213, 3]\nclass = 0", fillcolor="#e5833c"] ;
485 -> 486 ;
487 [label="gini = 0.0\nsamples = 137\nvalue = [213, 0]\nclass = 0", fillcolor="#e58139"] ;
486 -> 487 ;
488 [label="gini = 0.0\nsamples = 1\nvalue = [0, 3]\nclass = 1", fillcolor="#399de5"] ;
486 -> 488 ;
489 [label="X[20] <= -0.41\ngini = 0.41\nsamples = 13\nvalue = [20, 8]\nclass = 0", fillcolor="#efb388"] ;
485 -> 489 ;
490 [label="gini = 0.0\nsamples = 5\nvalue = [12, 0]\nclass = 0", fillcolor="#e58139"] ;
489 -> 490 ;
491 [label="X[43] <= -0.63\ngini = 0.5\nsamples = 8\nvalue = [8, 8]\nclass = 0", fillcolor="#ffffff"] ;
489 -> 491 ;
492 [label="gini = 0.0\nsamples = 3\nvalue = [7, 0]\nclass = 0", fillcolor="#e58139"] ;
491 -> 492 ;
493 [label="X[22] <= 0.61\ngini = 0.2\nsamples = 5\nvalue = [1, 8]\nclass = 1", fillcolor="#52a9e8"] ;
491 -> 493 ;
494 [label="gini = 0.0\nsamples = 1\nvalue = [1, 0]\nclass = 0", fillcolor="#e58139"] ;
493 -> 494 ;
495 [label="gini = 0.0\nsamples = 4\nvalue = [0, 8]\nclass = 1", fillcolor="#399de5"] ;
493 -> 495 ;
496 [label="X[3] <= 0.4\ngini = 0.2\nsamples = 14\nvalue = [16, 2]\nclass = 0", fillcolor="#e89152"] ;
482 -> 496 ;
497 [label="gini = 0.0\nsamples = 11\nvalue = [15, 0]\nclass = 0", fillcolor="#e58139"] ;
496 -> 497 ;
498 [label="X[4] <= 0.22\ngini = 0.44\nsamples = 3\nvalue = [1, 2]\nclass = 1", fillcolor="#9ccef2"] ;
496 -> 498 ;
499 [label="gini = 0.0\nsamples = 2\nvalue = [0, 2]\nclass = 1", fillcolor="#399de5"] ;
498 -> 499 ;
500 [label="gini = 0.0\nsamples = 1\nvalue = [1, 0]\nclass = 0", fillcolor="#e58139"] ;
498 -> 500 ;
501 [label="X[8] <= 1.05\ngini = 0.5\nsamples = 71\nvalue = [52, 61]\nclass = 1", fillcolor="#e2f1fb"] ;
425 -> 501 ;
502 [label="X[15] <= -0.05\ngini = 0.45\nsamples = 60\nvalue = [32, 61]\nclass = 1", fillcolor="#a1d0f3"] ;
501 -> 502 ;
503 [label="X[3] <= 2.82\ngini = 0.42\nsamples = 17\nvalue = [19, 8]\nclass = 0", fillcolor="#f0b68c"] ;
502 -> 503 ;
504 [label="X[45] <= -1.52\ngini = 0.29\nsamples = 15\nvalue = [19, 4]\nclass = 0", fillcolor="#ea9c63"] ;
503 -> 504 ;
505 [label="gini = 0.0\nsamples = 2\nvalue = [0, 3]\nclass = 1", fillcolor="#399de5"] ;
504 -> 505 ;
506 [label="X[13] <= 3.5\ngini = 0.09\nsamples = 13\nvalue = [19, 1]\nclass = 0", fillcolor="#e68843"] ;
504 -> 506 ;
507 [label="gini = 0.0\nsamples = 12\nvalue = [19, 0]\nclass = 0", fillcolor="#e58139"] ;
506 -> 507 ;
508 [label="gini = 0.0\nsamples = 1\nvalue = [0, 1]\nclass = 1", fillcolor="#399de5"] ;
506 -> 508 ;
509 [label="gini = 0.0\nsamples = 2\nvalue = [0, 4]\nclass = 1", fillcolor="#399de5"] ;
503 -> 509 ;
510 [label="X[20] <= -0.84\ngini = 0.32\nsamples = 43\nvalue = [13, 53]\nclass = 1", fillcolor="#6ab5eb"] ;
502 -> 510 ;
511 [label="X[18] <= 0.14\ngini = 0.38\nsamples = 3\nvalue = [3, 1]\nclass = 0", fillcolor="#eeab7b"] ;
510 -> 511 ;
512 [label="gini = 0.0\nsamples = 1\nvalue = [0, 1]\nclass = 1", fillcolor="#399de5"] ;
511 -> 512 ;
513 [label="gini = 0.0\nsamples = 2\nvalue = [3, 0]\nclass = 0", fillcolor="#e58139"] ;
511 -> 513 ;
514 [label="X[29] <= -0.95\ngini = 0.27\nsamples = 40\nvalue = [10, 52]\nclass = 1", fillcolor="#5fb0ea"] ;
510 -> 514 ;
515 [label="X[46] <= 0.43\ngini = 0.5\nsamples = 4\nvalue = [4, 4]\nclass = 0", fillcolor="#ffffff"] ;
514 -> 515 ;
516 [label="gini = 0.0\nsamples = 1\nvalue = [2, 0]\nclass = 0", fillcolor="#e58139"] ;
515 -> 516 ;
517 [label="X[21] <= 0.44\ngini = 0.44\nsamples = 3\nvalue = [2, 4]\nclass = 1", fillcolor="#9ccef2"] ;
515 -> 517 ;
518 [label="gini = 0.0\nsamples = 2\nvalue = [0, 4]\nclass = 1", fillcolor="#399de5"] ;
517 -> 518 ;
519 [label="gini = 0.0\nsamples = 1\nvalue = [2, 0]\nclass = 0", fillcolor="#e58139"] ;
517 -> 519 ;
520 [label="X[45] <= -2.48\ngini = 0.2\nsamples = 36\nvalue = [6, 48]\nclass = 1", fillcolor="#52a9e8"] ;
514 -> 520 ;
521 [label="X[13] <= 4.95\ngini = 0.38\nsamples = 3\nvalue = [3, 1]\nclass = 0", fillcolor="#eeab7b"] ;
520 -> 521 ;
522 [label="gini = 0.0\nsamples = 2\nvalue = [3, 0]\nclass = 0", fillcolor="#e58139"] ;
521 -> 522 ;
523 [label="gini = 0.0\nsamples = 1\nvalue = [0, 1]\nclass = 1", fillcolor="#399de5"] ;
521 -> 523 ;
524 [label="X[30] <= 0.58\ngini = 0.11\nsamples = 33\nvalue = [3, 47]\nclass = 1", fillcolor="#46a3e7"] ;
520 -> 524 ;
525 [label="X[38] <= 1.11\ngini = 0.08\nsamples = 32\nvalue = [2, 47]\nclass = 1", fillcolor="#41a1e6"] ;
524 -> 525 ;
526 [label="gini = 0.0\nsamples = 31\nvalue = [0, 47]\nclass = 1", fillcolor="#399de5"] ;
525 -> 526 ;
527 [label="gini = 0.0\nsamples = 1\nvalue = [2, 0]\nclass = 0", fillcolor="#e58139"] ;
525 -> 527 ;
528 [label="gini = 0.0\nsamples = 1\nvalue = [1, 0]\nclass = 0", fillcolor="#e58139"] ;
524 -> 528 ;
529 [label="gini = 0.0\nsamples = 11\nvalue = [20, 0]\nclass = 0", fillcolor="#e58139"] ;
501 -> 529 ;
530 [label="X[24] <= 1.06\ngini = 0.46\nsamples = 198\nvalue = [115, 200]\nclass = 1", fillcolor="#abd5f4"] ;
424 -> 530 ;
531 [label="X[29] <= -0.95\ngini = 0.5\nsamples = 157\nvalue = [115, 131]\nclass = 1", fillcolor="#e7f3fc"] ;
530 -> 531 ;
532 [label="X[42] <= -1.84\ngini = 0.15\nsamples = 25\nvalue = [44, 4]\nclass = 0", fillcolor="#e78c4b"] ;
531 -> 532 ;
533 [label="gini = 0.0\nsamples = 5\nvalue = [10, 0]\nclass = 0", fillcolor="#e58139"] ;
532 -> 533 ;
534 [label="X[4] <= -0.42\ngini = 0.19\nsamples = 20\nvalue = [34, 4]\nclass = 0", fillcolor="#e89050"] ;
532 -> 534 ;
535 [label="X[21] <= 0.61\ngini = 0.29\nsamples = 11\nvalue = [19, 4]\nclass = 0", fillcolor="#ea9c63"] ;
534 -> 535 ;
536 [label="gini = 0.0\nsamples = 2\nvalue = [0, 4]\nclass = 1", fillcolor="#399de5"] ;
535 -> 536 ;
537 [label="gini = 0.0\nsamples = 9\nvalue = [19, 0]\nclass = 0", fillcolor="#e58139"] ;
535 -> 537 ;
538 [label="gini = 0.0\nsamples = 9\nvalue = [15, 0]\nclass = 0", fillcolor="#e58139"] ;
534 -> 538 ;
539 [label="X[26] <= -0.7\ngini = 0.46\nsamples = 132\nvalue = [71, 127]\nclass = 1", fillcolor="#a8d4f4"] ;
531 -> 539 ;
540 [label="X[30] <= 0.58\ngini = 0.13\nsamples = 88\nvalue = [9, 120]\nclass = 1", fillcolor="#48a4e7"] ;
539 -> 540 ;
541 [label="gini = 0.0\nsamples = 66\nvalue = [0, 96]\nclass = 1", fillcolor="#399de5"] ;
540 -> 541 ;
542 [label="X[22] <= 2.34\ngini = 0.4\nsamples = 22\nvalue = [9, 24]\nclass = 1", fillcolor="#83c2ef"] ;
540 -> 542 ;
543 [label="X[4] <= -0.1\ngini = 0.49\nsamples = 14\nvalue = [9, 12]\nclass = 1", fillcolor="#cee6f8"] ;
542 -> 543 ;
544 [label="X[13] <= 1.37\ngini = 0.5\nsamples = 12\nvalue = [9, 8]\nclass = 0", fillcolor="#fcf1e9"] ;
543 -> 544 ;
545 [label="X[1] <= -0.11\ngini = 0.4\nsamples = 6\nvalue = [8, 3]\nclass = 0", fillcolor="#efb083"] ;
544 -> 545 ;
546 [label="gini = 0.0\nsamples = 2\nvalue = [5, 0]\nclass = 0", fillcolor="#e58139"] ;
545 -> 546 ;
547 [label="X[45] <= -1.52\ngini = 0.5\nsamples = 4\nvalue = [3, 3]\nclass = 0", fillcolor="#ffffff"] ;
545 -> 547 ;
548 [label="gini = 0.0\nsamples = 1\nvalue = [3, 0]\nclass = 0", fillcolor="#e58139"] ;
547 -> 548 ;
549 [label="gini = 0.0\nsamples = 3\nvalue = [0, 3]\nclass = 1", fillcolor="#399de5"] ;
547 -> 549 ;
550 [label="X[20] <= -0.23\ngini = 0.28\nsamples = 6\nvalue = [1, 5]\nclass = 1", fillcolor="#61b1ea"] ;
544 -> 550 ;
551 [label="X[46] <= 0.43\ngini = 0.5\nsamples = 2\nvalue = [1, 1]\nclass = 0", fillcolor="#ffffff"] ;
550 -> 551 ;
552 [label="gini = 0.0\nsamples = 1\nvalue = [0, 1]\nclass = 1", fillcolor="#399de5"] ;
551 -> 552 ;
553 [label="gini = 0.0\nsamples = 1\nvalue = [1, 0]\nclass = 0", fillcolor="#e58139"] ;
551 -> 553 ;
554 [label="gini = 0.0\nsamples = 4\nvalue = [0, 4]\nclass = 1", fillcolor="#399de5"] ;
550 -> 554 ;
555 [label="gini = 0.0\nsamples = 2\nvalue = [0, 4]\nclass = 1", fillcolor="#399de5"] ;
543 -> 555 ;
556 [label="gini = 0.0\nsamples = 8\nvalue = [0, 12]\nclass = 1", fillcolor="#399de5"] ;
542 -> 556 ;
557 [label="X[44] <= -0.96\ngini = 0.18\nsamples = 44\nvalue = [62, 7]\nclass = 0", fillcolor="#e88f4f"] ;
539 -> 557 ;
558 [label="X[26] <= -0.29\ngini = 0.39\nsamples = 14\nvalue = [19, 7]\nclass = 0", fillcolor="#efaf82"] ;
557 -> 558 ;
559 [label="gini = 0.0\nsamples = 9\nvalue = [17, 0]\nclass = 0", fillcolor="#e58139"] ;
558 -> 559 ;
560 [label="X[3] <= 0.22\ngini = 0.35\nsamples = 5\nvalue = [2, 7]\nclass = 1", fillcolor="#72b9ec"] ;
558 -> 560 ;
561 [label="gini = 0.0\nsamples = 2\nvalue = [2, 0]\nclass = 0", fillcolor="#e58139"] ;
560 -> 561 ;
562 [label="gini = 0.0\nsamples = 3\nvalue = [0, 7]\nclass = 1", fillcolor="#399de5"] ;
560 -> 562 ;
563 [label="gini = 0.0\nsamples = 30\nvalue = [43, 0]\nclass = 0", fillcolor="#e58139"] ;
557 -> 563 ;
564 [label="gini = 0.0\nsamples = 41\nvalue = [0, 69]\nclass = 1", fillcolor="#399de5"] ;
530 -> 564 ;
565 [label="X[13] <= 1.63\ngini = 0.05\nsamples = 215\nvalue = [324, 9]\nclass = 0", fillcolor="#e6843e"] ;
423 -> 565 ;
566 [label="X[42] <= -1.84\ngini = 0.01\nsamples = 204\nvalue = [315, 1]\nclass = 0", fillcolor="#e5813a"] ;
565 -> 566 ;
567 [label="X[13] <= 0.43\ngini = 0.32\nsamples = 4\nvalue = [4, 1]\nclass = 0", fillcolor="#eca06a"] ;
566 -> 567 ;
568 [label="gini = 0.0\nsamples = 3\nvalue = [4, 0]\nclass = 0", fillcolor="#e58139"] ;
567 -> 568 ;
569 [label="gini = 0.0\nsamples = 1\nvalue = [0, 1]\nclass = 1", fillcolor="#399de5"] ;
567 -> 569 ;
570 [label="gini = 0.0\nsamples = 200\nvalue = [311, 0]\nclass = 0", fillcolor="#e58139"] ;
566 -> 570 ;
571 [label="X[2] <= -0.43\ngini = 0.5\nsamples = 11\nvalue = [9, 8]\nclass = 0", fillcolor="#fcf1e9"] ;
565 -> 571 ;
572 [label="gini = 0.0\nsamples = 4\nvalue = [7, 0]\nclass = 0", fillcolor="#e58139"] ;
571 -> 572 ;
573 [label="X[0] <= 0.78\ngini = 0.32\nsamples = 7\nvalue = [2, 8]\nclass = 1", fillcolor="#6ab6ec"] ;
571 -> 573 ;
574 [label="gini = 0.0\nsamples = 5\nvalue = [0, 8]\nclass = 1", fillcolor="#399de5"] ;
573 -> 574 ;
575 [label="gini = 0.0\nsamples = 2\nvalue = [2, 0]\nclass = 0", fillcolor="#e58139"] ;
573 -> 575 ;
576 [label="X[24] <= 1.06\ngini = 0.06\nsamples = 761\nvalue = [1138, 39]\nclass = 0", fillcolor="#e68540"] ;
422 -> 576 ;
577 [label="X[26] <= -0.7\ngini = 0.05\nsamples = 747\nvalue = [1127, 28]\nclass = 0", fillcolor="#e6843e"] ;
576 -> 577 ;
578 [label="X[44] <= 0.17\ngini = 0.46\nsamples = 39\nvalue = [38, 21]\nclass = 0", fillcolor="#f3c7a6"] ;
577 -> 578 ;
579 [label="X[21] <= 1.11\ngini = 0.1\nsamples = 12\nvalue = [17, 1]\nclass = 0", fillcolor="#e78845"] ;
578 -> 579 ;
580 [label="gini = 0.0\nsamples = 8\nvalue = [14, 0]\nclass = 0", fillcolor="#e58139"] ;
579 -> 580 ;
581 [label="X[21] <= 1.48\ngini = 0.38\nsamples = 4\nvalue = [3, 1]\nclass = 0", fillcolor="#eeab7b"] ;
579 -> 581 ;
582 [label="gini = 0.0\nsamples = 1\nvalue = [0, 1]\nclass = 1", fillcolor="#399de5"] ;
581 -> 582 ;
583 [label="gini = 0.0\nsamples = 3\nvalue = [3, 0]\nclass = 0", fillcolor="#e58139"] ;
581 -> 583 ;
584 [label="X[22] <= 1.29\ngini = 0.5\nsamples = 27\nvalue = [21, 20]\nclass = 0", fillcolor="#fef9f6"] ;
578 -> 584 ;
585 [label="X[32] <= 1.9\ngini = 0.48\nsamples = 21\nvalue = [13, 20]\nclass = 1", fillcolor="#baddf6"] ;
584 -> 585 ;
586 [label="X[21] <= -0.65\ngini = 0.43\nsamples = 18\nvalue = [9, 20]\nclass = 1", fillcolor="#92c9f1"] ;
585 -> 586 ;
587 [label="X[33] <= -0.42\ngini = 0.47\nsamples = 5\nvalue = [5, 3]\nclass = 0", fillcolor="#f5cdb0"] ;
586 -> 587 ;
588 [label="X[11] <= 0.65\ngini = 0.48\nsamples = 3\nvalue = [2, 3]\nclass = 1", fillcolor="#bddef6"] ;
587 -> 588 ;
589 [label="gini = 0.0\nsamples = 2\nvalue = [0, 3]\nclass = 1", fillcolor="#399de5"] ;
588 -> 589 ;
590 [label="gini = 0.0\nsamples = 1\nvalue = [2, 0]\nclass = 0", fillcolor="#e58139"] ;
588 -> 590 ;
591 [label="gini = 0.0\nsamples = 2\nvalue = [3, 0]\nclass = 0", fillcolor="#e58139"] ;
587 -> 591 ;
592 [label="X[9] <= 1.49\ngini = 0.31\nsamples = 13\nvalue = [4, 17]\nclass = 1", fillcolor="#68b4eb"] ;
586 -> 592 ;
593 [label="X[8] <= 0.16\ngini = 0.39\nsamples = 11\nvalue = [4, 11]\nclass = 1", fillcolor="#81c1ee"] ;
592 -> 593 ;
594 [label="gini = 0.0\nsamples = 8\nvalue = [0, 11]\nclass = 1", fillcolor="#399de5"] ;
593 -> 594 ;
595 [label="gini = 0.0\nsamples = 3\nvalue = [4, 0]\nclass = 0", fillcolor="#e58139"] ;
593 -> 595 ;
596 [label="gini = 0.0\nsamples = 2\nvalue = [0, 6]\nclass = 1", fillcolor="#399de5"] ;
592 -> 596 ;
597 [label="gini = 0.0\nsamples = 3\nvalue = [4, 0]\nclass = 0", fillcolor="#e58139"] ;
585 -> 597 ;
598 [label="gini = 0.0\nsamples = 6\nvalue = [8, 0]\nclass = 0", fillcolor="#e58139"] ;
584 -> 598 ;
599 [label="X[11] <= 5.56\ngini = 0.01\nsamples = 708\nvalue = [1089, 7]\nclass = 0", fillcolor="#e5823a"] ;
577 -> 599 ;
600 [label="X[17] <= 3.24\ngini = 0.01\nsamples = 707\nvalue = [1089, 6]\nclass = 0", fillcolor="#e5823a"] ;
599 -> 600 ;
601 [label="X[4] <= -0.1\ngini = 0.01\nsamples = 701\nvalue = [1083, 3]\nclass = 0", fillcolor="#e5813a"] ;
600 -> 601 ;
602 [label="X[13] <= 1.94\ngini = 0.01\nsamples = 262\nvalue = [402, 3]\nclass = 0", fillcolor="#e5823a"] ;
601 -> 602 ;
603 [label="X[3] <= -0.14\ngini = 0.01\nsamples = 255\nvalue = [396, 1]\nclass = 0", fillcolor="#e58139"] ;
602 -> 603 ;
604 [label="gini = 0.0\nsamples = 167\nvalue = [258, 0]\nclass = 0", fillcolor="#e58139"] ;
603 -> 604 ;
605 [label="X[29] <= -0.95\ngini = 0.01\nsamples = 88\nvalue = [138, 1]\nclass = 0", fillcolor="#e5823a"] ;
603 -> 605 ;
606 [label="X[33] <= -0.43\ngini = 0.06\nsamples = 19\nvalue = [32, 1]\nclass = 0", fillcolor="#e6853f"] ;
605 -> 606 ;
607 [label="X[3] <= -0.08\ngini = 0.1\nsamples = 10\nvalue = [17, 1]\nclass = 0", fillcolor="#e78845"] ;
606 -> 607 ;
608 [label="gini = 0.0\nsamples = 1\nvalue = [0, 1]\nclass = 1", fillcolor="#399de5"] ;
607 -> 608 ;
609 [label="gini = 0.0\nsamples = 9\nvalue = [17, 0]\nclass = 0", fillcolor="#e58139"] ;
607 -> 609 ;
610 [label="gini = 0.0\nsamples = 9\nvalue = [15, 0]\nclass = 0", fillcolor="#e58139"] ;
606 -> 610 ;
611 [label="gini = 0.0\nsamples = 69\nvalue = [106, 0]\nclass = 0", fillcolor="#e58139"] ;
605 -> 611 ;
612 [label="X[22] <= 2.32\ngini = 0.38\nsamples = 7\nvalue = [6, 2]\nclass = 0", fillcolor="#eeab7b"] ;
602 -> 612 ;
613 [label="X[27] <= -0.8\ngini = 0.5\nsamples = 3\nvalue = [2, 2]\nclass = 0", fillcolor="#ffffff"] ;
612 -> 613 ;
614 [label="gini = 0.0\nsamples = 1\nvalue = [0, 2]\nclass = 1", fillcolor="#399de5"] ;
613 -> 614 ;
615 [label="gini = 0.0\nsamples = 2\nvalue = [2, 0]\nclass = 0", fillcolor="#e58139"] ;
613 -> 615 ;
616 [label="gini = 0.0\nsamples = 4\nvalue = [4, 0]\nclass = 0", fillcolor="#e58139"] ;
612 -> 616 ;
617 [label="gini = 0.0\nsamples = 439\nvalue = [681, 0]\nclass = 0", fillcolor="#e58139"] ;
601 -> 617 ;
618 [label="X[28] <= 0.89\ngini = 0.44\nsamples = 6\nvalue = [6, 3]\nclass = 0", fillcolor="#f2c09c"] ;
600 -> 618 ;
619 [label="gini = 0.0\nsamples = 4\nvalue = [5, 0]\nclass = 0", fillcolor="#e58139"] ;
618 -> 619 ;
620 [label="X[21] <= 0.85\ngini = 0.38\nsamples = 2\nvalue = [1, 3]\nclass = 1", fillcolor="#7bbeee"] ;
618 -> 620 ;
621 [label="gini = 0.0\nsamples = 1\nvalue = [0, 3]\nclass = 1", fillcolor="#399de5"] ;
620 -> 621 ;
622 [label="gini = 0.0\nsamples = 1\nvalue = [1, 0]\nclass = 0", fillcolor="#e58139"] ;
620 -> 622 ;
623 [label="gini = 0.0\nsamples = 1\nvalue = [0, 1]\nclass = 1", fillcolor="#399de5"] ;
599 -> 623 ;
624 [label="X[26] <= -0.66\ngini = 0.5\nsamples = 14\nvalue = [11, 11]\nclass = 0", fillcolor="#ffffff"] ;
576 -> 624 ;
625 [label="gini = 0.0\nsamples = 5\nvalue = [0, 6]\nclass = 1", fillcolor="#399de5"] ;
624 -> 625 ;
626 [label="X[15] <= -0.05\ngini = 0.43\nsamples = 9\nvalue = [11, 5]\nclass = 0", fillcolor="#f1ba93"] ;
624 -> 626 ;
627 [label="gini = 0.0\nsamples = 3\nvalue = [8, 0]\nclass = 0", fillcolor="#e58139"] ;
626 -> 627 ;
628 [label="X[0] <= -0.33\ngini = 0.47\nsamples = 6\nvalue = [3, 5]\nclass = 1", fillcolor="#b0d8f5"] ;
626 -> 628 ;
629 [label="gini = 0.0\nsamples = 2\nvalue = [2, 0]\nclass = 0", fillcolor="#e58139"] ;
628 -> 629 ;
630 [label="X[3] <= 1.17\ngini = 0.28\nsamples = 4\nvalue = [1, 5]\nclass = 1", fillcolor="#61b1ea"] ;
628 -> 630 ;
631 [label="gini = 0.0\nsamples = 1\nvalue = [1, 0]\nclass = 0", fillcolor="#e58139"] ;
630 -> 631 ;
632 [label="gini = 0.0\nsamples = 3\nvalue = [0, 5]\nclass = 1", fillcolor="#399de5"] ;
630 -> 632 ;
633 [label="gini = 0.0\nsamples = 11\nvalue = [0, 15]\nclass = 1", fillcolor="#399de5"] ;
421 -> 633 ;
634 [label="X[44] <= -0.96\ngini = 0.17\nsamples = 110\nvalue = [17, 167]\nclass = 1", fillcolor="#4da7e8"] ;
420 -> 634 ;
635 [label="X[29] <= -0.95\ngini = 0.43\nsamples = 29\nvalue = [15, 33]\nclass = 1", fillcolor="#93caf1"] ;
634 -> 635 ;
636 [label="X[45] <= -0.56\ngini = 0.41\nsamples = 9\nvalue = [10, 4]\nclass = 0", fillcolor="#efb388"] ;
635 -> 636 ;
637 [label="gini = 0.0\nsamples = 3\nvalue = [0, 4]\nclass = 1", fillcolor="#399de5"] ;
636 -> 637 ;
638 [label="gini = 0.0\nsamples = 6\nvalue = [10, 0]\nclass = 0", fillcolor="#e58139"] ;
636 -> 638 ;
639 [label="X[30] <= 0.58\ngini = 0.25\nsamples = 20\nvalue = [5, 29]\nclass = 1", fillcolor="#5baee9"] ;
635 -> 639 ;
640 [label="gini = 0.0\nsamples = 15\nvalue = [0, 25]\nclass = 1", fillcolor="#399de5"] ;
639 -> 640 ;
641 [label="X[3] <= 0.14\ngini = 0.49\nsamples = 5\nvalue = [5, 4]\nclass = 0", fillcolor="#fae6d7"] ;
639 -> 641 ;
642 [label="X[47] <= 0.21\ngini = 0.32\nsamples = 2\nvalue = [1, 4]\nclass = 1", fillcolor="#6ab6ec"] ;
641 -> 642 ;
643 [label="gini = 0.0\nsamples = 1\nvalue = [1, 0]\nclass = 0", fillcolor="#e58139"] ;
642 -> 643 ;
644 [label="gini = 0.0\nsamples = 1\nvalue = [0, 4]\nclass = 1", fillcolor="#399de5"] ;
642 -> 644 ;
645 [label="gini = 0.0\nsamples = 3\nvalue = [4, 0]\nclass = 0", fillcolor="#e58139"] ;
641 -> 645 ;
646 [label="X[30] <= 0.58\ngini = 0.03\nsamples = 81\nvalue = [2, 134]\nclass = 1", fillcolor="#3c9ee5"] ;
634 -> 646 ;
647 [label="X[42] <= -3.85\ngini = 0.02\nsamples = 73\nvalue = [1, 123]\nclass = 1", fillcolor="#3b9ee5"] ;
646 -> 647 ;
648 [label="gini = 0.0\nsamples = 3\nvalue = [0, 5]\nclass = 1", fillcolor="#399de5"] ;
647 -> 648 ;
649 [label="X[1] <= -0.11\ngini = 0.02\nsamples = 70\nvalue = [1, 118]\nclass = 1", fillcolor="#3b9ee5"] ;
647 -> 649 ;
650 [label="gini = 0.0\nsamples = 60\nvalue = [0, 100]\nclass = 1", fillcolor="#399de5"] ;
649 -> 650 ;
651 [label="X[46] <= -0.89\ngini = 0.1\nsamples = 10\nvalue = [1, 18]\nclass = 1", fillcolor="#44a2e6"] ;
649 -> 651 ;
652 [label="X[20] <= -0.41\ngini = 0.28\nsamples = 3\nvalue = [1, 5]\nclass = 1", fillcolor="#61b1ea"] ;
651 -> 652 ;
653 [label="gini = 0.0\nsamples = 1\nvalue = [0, 4]\nclass = 1", fillcolor="#399de5"] ;
652 -> 653 ;
654 [label="X[3] <= 0.37\ngini = 0.5\nsamples = 2\nvalue = [1, 1]\nclass = 0", fillcolor="#ffffff"] ;
652 -> 654 ;
655 [label="gini = 0.0\nsamples = 1\nvalue = [0, 1]\nclass = 1", fillcolor="#399de5"] ;
654 -> 655 ;
656 [label="gini = 0.0\nsamples = 1\nvalue = [1, 0]\nclass = 0", fillcolor="#e58139"] ;
654 -> 656 ;
657 [label="gini = 0.0\nsamples = 7\nvalue = [0, 13]\nclass = 1", fillcolor="#399de5"] ;
651 -> 657 ;
658 [label="X[44] <= 0.17\ngini = 0.15\nsamples = 8\nvalue = [1, 11]\nclass = 1", fillcolor="#4ba6e7"] ;
646 -> 658 ;
659 [label="gini = 0.0\nsamples = 1\nvalue = [1, 0]\nclass = 0", fillcolor="#e58139"] ;
658 -> 659 ;
660 [label="gini = 0.0\nsamples = 7\nvalue = [0, 11]\nclass = 1", fillcolor="#399de5"] ;
658 -> 660 ;
}